"","X1000","X1001","X1002","X1003","X1004","X1005","X1006","X1007","X1008","X1009","X1010","X1011","X1012","X1013","X1014","X1015","X1016","X1017","X1018","X1019","X1020","X1021","X1022","X1023","X1024","X1025","X1026","X1027","X1028","X1029","X1030","X1031","X1032","X1033","X1034","X1035","X1036","X1037","X1038","X1039","X1040","X1041","X1042","X1043","X1044","X1045","X1046","X1048","X1049","X1050","X1051","X1052","X1053","X1054","X1055","X1056","X1057","X1058","X1059","X1060","X1061","X1062","X1063","X1064","X1065","X1066","X1067","X1068","X1069","X1070","X1071","X1072","X1073","X1074","X1075","X1076","X1077","X1078","X1079","X1080","X1081","X1082","X1083","X1084","X1085","X1086","X1087","X1088","X1089","X1090","X1091","X1092","X1093","X1094","X1095","X1096","X1097","X1098","X1099","X1100","X1101","X1102","X1103","X1104","X1105","X1106","X1107","X1108","X1109","X1110","X1111","X1112","X1113","X1114","X1115","X1116","X1117","X1118","X1119","X1120","X1121","X1122","X1123","X1124","X1125","X1126","X1127","X1128","X1129","X1130","X1131","X1132","X1133","X1134","X1135","X1136","X1137","X1138","X1139","X1140","X1141","X1142","X1143","X1144","X1145","X1146","X1147","X1148","X1149","X1150","X1151","X1152","X1153","X1154","X1155","X1156","X1157","X1158","X1159","X1160","X1161","X1162","X1163","X1164","X1165","X1166","X1167","X1168","X1169","X1170","X1171","X1172","X1173","X1174","X1175","X1176","X1177","X1178","X1179","X1181","X1182","X1183","X1184","X1185","X1186","X1187","X1188","X1189","X1190","X1191","X1192","X1193","X1194","X1195","X1196","X1197","X1198","X1199","X1200","X1201","X1202","X1203","X1204","X1205","X1206","X1207","X1208","X1209","X1210","X1211","X1212","X1213","X1214","X1215","X1216","X1217","X1218","X1219","X1220","X1221","X1222","X1223","X1224","X1225","X1226","X1227","X1228","X1229","X1230","X1231","X1232","X1234","X1235","X1236","X1237","X1238","X1239","X1240","X1241","X1242","X1243","X1244","X1246","X1250","X1251","X1252","X1253","X1254","X1255","X1256","X1257","X1259","X1261","X1262","X1263","X1265","X1266","X1267","X1268","X1270","X1271","X1272","X1273","X1274","X1276","X1277","X1280","X1284","X1295"
"X1000",1,0.0434523385636484,0.00811235992437399,0.0206067006989084,-0.0425565697573767,-0.0133503303455497,0.0439393763731569,-0.0149112538431244,-0.0578988220271819,-0.0545965814974063,-0.0320349835270952,0.178124868504689,0.0932622221863135,0.0032881329644251,0.465755977433676,0.0204508570128527,0.024901751528142,-0.00261299111529247,-0.0171420631545663,0.00663022604865352,-0.032616401068487,-0.0422970365312849,-0.0301972594488781,-0.0106094804334121,-0.028876598989954,-0.0344060492395926,-0.054847563376347,-0.0460359507206093,-0.0274629496200762,0.0263278885251954,-0.0352111706696776,0.110496011964468,-0.00451445259094474,-0.00589487930315698,-0.0283553183335336,-0.0464423608384292,0.114866124985478,-0.00684385434190576,-0.025340331910671,0.00143852217747123,0.237024028789059,-0.0758255582611128,-0.0227775720657115,-0.00591393400722332,-0.0383280755877353,-0.0298477164261966,0.0191654216464174,-0.0072990362688724,0.10214412940877,0.0577505704260206,0.0167559893288288,0.0185693961318752,-0.00508100639324505,0.0375669967187881,-0.0266208459121844,0.0115584149225181,0.00408761950312325,0.0163764126758223,-0.0101406728429007,-0.0261283741807222,0.0211725918679677,-0.0203454584276755,-0.0061939272073921,-0.0257266497993232,-0.0167558166288555,-0.00232810340463327,-0.0119266010275528,-0.0164888135711405,-0.00485945852461696,-0.0600607940719631,-0.0101406728429007,-0.00432302594718821,-0.0182066219540388,-0.0363298356866317,-0.00253446015610076,-0.0433238878412923,0.0918767320073616,-0.0204175290608264,0.00322016880499635,-0.023710567838948,0.0476906579648531,-0.0222086790640434,0.000280720876360272,-0.0134932050351437,-0.00305045088912405,0.0266236025072868,-0.0131770000992199,0.211789158770234,0.208756602217722,0.00246267673792542,-0.0173998647421444,-0.0180333134457506,-0.00685731444215688,0.00663663608086852,-0.0127232199372462,0.00853474431273689,0.0214679705135012,-0.019792250944392,0.0032198450826607,0.00912528039107238,0.00248959681061495,0.00887480034759047,0.0062632756965141,-0.00221572520458313,-0.0260862078207679,-0.011280366068996,0.0217802410546933,0.0230734892162224,-0.0126933591388556,-0.0139544719511735,-0.0174902428109286,-0.00825751628233236,-0.0142675968904704,-0.000501579856712089,-0.0100882492920426,0.0123628254392532,-0.00873562672956639,-0.00818973535326529,-0.0321429477697522,-0.00504230069924464,0.0171118945315762,0.00248959681061495,-0.0124086275536935,-0.0194348919428877,-0.0142675968904704,-0.00895598912044829,-0.00895213730920807,-0.00504230069924464,0.0163424543455691,0.0197708210440667,-0.0133547433288405,0.00663663608086852,-0.0146332461103109,-0.00382720105409405,0.0206062470020623,0.0177154011162933,0.0214941933752514,0.00352465387816165,-0.011280366068996,-0.0252847396809858,-0.00589487930315698,-0.00873562672956639,-0.0281763938837024,-0.0131986843548253,-0.0123585127692896,-0.0120160332808121,-0.0226016648577154,0.00902000604602468,0.0266236025072868,-0.0369407247428576,0.00939355977373827,-0.0174902428109286,-0.00713174954025808,-0.00539046298671424,-0.0146855811278453,-0.0295190403243844,-0.00850857414057033,-0.0247708818498232,-0.0131986843548253,-0.00697124270497955,0.00248959681061495,-0.00462958828874476,0.00442452567807256,0.00108442331388028,-0.0100882492920426,-0.000791823592513736,-0.0152519619155938,0.0307713557678757,-0.0131986843548253,-0.0142738262200956,-0.0220267114111624,-0.0167436095582031,-0.00504230069924464,-0.0123585127692896,-0.00873562672956639,-0.027714846537583,0.0160052968767716,-0.00713174954025808,0.0123628254392532,0.0266236025072868,-0.00873562672956639,-4.45649236431142e-05,0.0355622307648473,0.0111474888110199,0.0174942299946357,-0.0131986843548253,-0.0208301413431843,-0.0299536369194344,-0.00408642257470477,-0.00713174954025808,0.00922727342286181,-0.00798921939217197,0.00248959681061495,0.0302378976719528,-0.00504230069924464,0.00767834784612575,-0.011280366068996,-0.00504230069924464,-0.0133503303455497,0.0144209968648838,-0.00873562672956639,-0.00221572520458313,0.0160052968767716,0.0214389185829899,0.00227176077286842,-0.0123585127692896,-0.0100882492920426,-0.00713174954025808,0.0123628254392532,0.050950937127234,-0.00589487930315698,-0.00713174954025808,-0.00504230069924464,-0.0167496817233343,-0.0214366321190582,-0.00873562672956639,-0.000791823592513736,-0.00713174954025808,0.0427731579831808,0.0163424543455691,-0.00873562672956639,-0.0100882492920426,-0.011280366068996,-0.00713174954025808,-0.0151415068823066,0.0258245441935492,-0.0133503303455497,-0.00504230069924464,-0.0174902428109286,-0.000791823592513736,-0.00873562672956639,0.0739846319993159,0.0163424543455691,-0.0100882492920426,-0.00873562672956639,0.0163424543455691,-0.00713174954025808,-0.00504230069924464,-0.0100882492920426,-0.00713174954025808,-0.00504230069924464,-0.0100882492920426,-0.0100882492920426,-0.00504230069924464,-0.0142738262200956,-0.00713174954025808,-0.0100882492920426,-0.00504230069924464,-0.00713174954025808,-0.00504230069924464,-0.0100882492920426,-0.00504230069924464,-0.00504230069924464,-0.00504230069924464,-0.00713174954025808,-0.00504230069924464,-0.00504230069924464,-0.00713174954025808,-0.00504230069924464,-0.00504230069924464,-0.00504230069924464,-0.00504230069924464,-0.00504230069924464,-0.00504230069924464,0.0477999919822332,-0.00504230069924464,0.0302378976719528,0.0477999919822332,0.000778848111646146
"X1001",0.0434523385636484,1,0.0757534055136738,0.439858749377946,0.117995151507444,0.00288968010755593,-7.21812620945044e-05,-0.0653051223844687,-0.137669888838568,0.0136161722169627,-0.115348905552533,-0.0620929621724919,-0.026014871582146,0.04795777558737,-0.0798349769516095,-0.0147600174671805,-0.0531245224927575,0.0136615119566519,0.225255608184884,-0.0436975101947414,-0.0583779472193056,-0.0672113789925104,-0.0739752044413495,-0.0278093615478506,-0.0501574436758385,-0.114145210170055,-0.245783164408448,-0.133268231044075,-0.0411469379827516,-0.0167059508855858,0.0330276978449415,-0.0847881653352671,-0.0694246964456795,-0.0157203723921237,-0.130792259291706,0.219113589779882,-0.038752599038047,-8.73784644874419e-05,-0.184749324540472,-0.0320018693666749,-0.0708427129245484,-0.186337131312071,-0.103335708654456,-0.0424175738156881,-0.0231756291524453,-0.0280423651640142,0.116029610761175,-0.0540136154190927,0.228210882432015,-0.0227836914998109,-0.0303301098075484,-0.113402003620182,-0.106407957945633,0.0260247489483468,-0.0377371289797932,-0.0459190443836776,-0.075232931805754,-0.00123560427621462,-0.0316487910749762,-0.0851247613140597,-0.0147891335805541,-0.0232202137419682,-0.050570048879025,-0.0990599241023357,-0.0920257366041683,-0.0320889378729625,-0.0763387902819482,-0.076558186022676,-0.0365846927112829,-0.10748420638185,0.0234267614214746,-0.0710442418169382,-0.0187491408452911,0.0296489041364589,-0.0226043507934011,0.137861915434045,0.138276149401858,0.163746541321256,-0.015427900842653,-0.0113587133108441,-0.0162983676610048,-0.0441438219072731,0.0908772835386427,-0.0154682655950875,0.117110967438738,0.0269220898196944,0.0368384777580222,-0.0209268179724918,-0.0150456886666036,0.112677032427622,-0.0143975537267408,-0.0397340700233503,-0.0442544413376534,-0.00912652474851332,-0.00144536706440993,-0.0105017066096251,-0.0453104997124596,-0.0134771001365132,-0.0134771001365132,-0.0502824426185056,-0.0270079206983261,-0.009103575049266,-0.00244642080010786,-0.0158922448755584,-0.0320889378729625,0.000411016910158635,-0.00335094480363927,-0.0366823126558031,0.00429739602582155,-0.0225076875373587,-0.0342583869623219,-0.0175239115309775,-0.0487983727440984,0.0867271053037206,0.00672365747079381,-0.0280176527091469,0.0149952569577103,-0.0232202137419682,-0.0432429956649642,-0.0125238337995798,0.0264102297811969,0.0365912116440533,-0.0288747821645468,-0.0206036069005821,-0.0414903273149183,-0.0382365417663448,-0.0417471995931825,-0.0125238337995798,-0.00916653529902072,0.0869708609577625,0.00217154411433993,0.0149058849636252,0.0798551378493384,-0.0500799199887089,0.107525119390228,-0.00795513488557327,0.0136419072889965,-0.0232297658697748,0.0146253517198114,-0.0436843626322704,-0.0403700746946352,0.0149952569577103,-0.0184438009920038,-0.0137287375609514,0.0212141704685497,0.0334437766412364,-0.020536661291499,-0.0207543391839272,-0.0211427296045826,0.000467710442269351,0.0636175711104311,-0.0158922448755584,0.00475319747639558,-0.0257813595258694,-0.0245676556104157,-0.013146735819372,-0.0118966116973127,-0.00299914466349934,-0.0270125475115105,0.0532499148136329,0.0365912116440533,0.0861008393367913,0.00951327782683353,-0.020536661291499,0.0385040430104229,-0.0224065124697243,0.0667768995287317,0.0577123927860023,0.00619697736488735,0.0207547650083139,-0.0108840567263624,-0.0128162663115812,-0.0125238337995798,-0.0306955037322057,0.0149952569577103,-0.0280929552618322,-0.0382365417663448,-0.0177135104131735,-0.0280176527091469,0.0389382946757637,0.0149952569577103,-0.029733002077807,0.0776730397436647,0.0165463613130024,-0.00947550359001819,-0.0203706425362309,-0.020856990312174,-0.0366530279350924,-0.050056598306222,-0.0177135104131735,0.00823675191836082,0.0331829283971244,-0.00580820991753296,0.00475319747639558,-0.0125238337995798,0.0295150934595996,0.000411016910158635,0.0192450600074228,-0.00912652474851332,0.0110283796001596,-0.00335094480363927,0.0116569682545867,0.00678378592336513,0.066445301949581,0.00372423415798558,-0.0306955037322057,-0.00916653529902072,-0.0177135104131735,0.0288396865294642,0.0508672174819647,0.000712762476217198,0.00475319747639558,-0.0125238337995798,-0.0122760990835293,-0.0382365417663448,-0.00335094480363927,0.0351349644791345,0.00475319747639558,0.0385040430104229,0.00672365747079381,-0.0216971465649888,-0.00916653529902072,-0.0280176527091469,-0.0177135104131735,0.0471910670344499,-0.0275730163848645,-0.00912652474851332,-0.0125238337995798,0.0667553945148771,0.0447252106372776,-0.00335094480363927,0.00823675191836082,-0.0250567280688353,-0.00916653529902072,-0.00335094480363927,-0.00916653529902072,-0.0177135104131735,-0.0125238337995798,-0.00916653529902072,-0.0177135104131735,-0.0125238337995798,-0.00916653529902072,-0.00916653529902072,0.0192450600074228,0.0432377393712747,0.00475319747639558,-0.00916653529902072,-0.0125238337995798,0.00475319747639558,0.0192450600074228,-0.00916653529902072,-0.0125238337995798,-0.0125238337995798,-0.0125238337995798,-0.0177135104131735,-0.0125238337995798,-0.0125238337995798,-0.0177135104131735,-0.0125238337995798,-0.0125238337995798,-0.0125238337995798,-0.0125238337995798,-0.0125238337995798,-0.0125238337995798,0.0192450600074228,0.0192450600074228,0.00475319747639558,-0.0125238337995798,-0.0316775052712703
"X1002",0.00811235992437399,0.0757534055136738,1,0.0233745975794548,0.0307562022253967,-0.011014030555939,0.0198682693902351,-0.0241607595338887,-0.011178252654495,0.0515455850207805,-0.0453581945561843,-0.0313318869924234,-0.0126014204249252,-0.0220841020629838,-0.0373355421660509,-0.00995589216680868,-0.00829063615424874,-0.0125309178859362,0.00535304059125336,-0.00961902450553233,-0.0485265389372945,-0.0262008710800166,-0.00450600267887264,-0.00228546174833232,-0.0431402006943931,-0.0177780650463924,-0.0611480346270166,-0.023216129532001,-0.0199708238215674,0.0519746426886191,0.00542892479280352,0.00818923252733538,0.0174353712710294,0.176594433551566,-0.0179084228125949,0.0819340954719914,-0.00741397559757607,0.0103623438505148,-0.0529825112384944,0.0497478082597495,0.000357151968278671,-0.064762399389022,-0.0438488100485371,0.0299305962217754,-0.0150580393747855,0.00174038106438917,-0.0069059891237793,0.0408480205736638,0.0339295411749497,-0.0191091746434649,0.0145822174010181,-0.0229646335973056,-0.0316548633633394,-0.0189136634685842,0.0120266003762104,-0.00429134953543418,-0.0131830413708319,-0.00111862631208335,-0.00677671636850936,-0.0155727992226787,0.0213409999050075,-0.0154142161605212,-0.0250533355637515,-0.0192030203352705,-0.0326858303235468,-0.00944124322251678,-0.00401072599413929,-0.0344878722068786,0.00351122180527962,-0.019641499799873,0.0180672526503191,-0.0378053608865272,0.00222771834286647,-0.0222601744466135,0.0097883969103772,-0.0346084423404028,-0.00917429355294873,-0.0390228888052018,-0.0156394160077328,0.00698524072006247,-0.0137094288448355,-0.0107765672002179,-0.0215185209348124,-0.0175019138613695,-0.00995589216680868,0.0124742668783606,-0.0257538076945419,-0.0139365298256635,-0.0162804737132509,-0.00251996561433279,-0.0109070792231082,-0.0114872140931245,-0.016568828367653,0.0359625643126602,0.0510185529836931,0.00025331185578912,-0.00628799599617345,-0.0199708238215674,-0.0109563666908838,0.0140835213820004,-0.0124917522748999,0.0755501088855502,-0.00111681429532947,-0.0144294608271305,-0.0280546205970748,-0.00930630878415043,-0.00720689730024506,-0.0055252289822146,-0.0250653532945511,-0.00772475612320544,0.00352085764786697,0.0306854789024601,-0.0154142161605212,-0.00158247926111576,-0.00832281172694178,-0.00930630878415043,-0.00720689730024506,-0.00827163051222254,0.00481629945859938,0.0579393420270964,0.215802681764385,0.111826645664752,-0.0327273684508161,0.0215319046067842,0.00601354078437485,-0.00301822345288442,-0.0226249079407377,-0.0041599011062843,-0.00832281172694178,0.000591045794044132,0.0361076159001785,0.0124742668783606,-0.0161086749480761,-0.033538914905345,-0.00525063947397936,0.0121637919122426,0.0124436228154255,-0.0176852343773228,0.0184787138447879,0.0414197080437901,-0.0161384788058301,-0.00720689730024506,-0.023245541882394,-0.0200032888936612,0.0151714191251983,0.00690812026686698,0.0509421978141082,-0.00727497226821834,-0.011014030555939,0.0038596742309814,-0.0155893668292647,-0.0144294608271305,-0.00588369765545844,-0.0156394160077328,0.00405192796080555,-0.0243532260026168,-0.0340630729557123,-0.00772475612320544,-0.0200032888936612,-0.0166697650524345,0.008227980715042,-0.0151605536583752,0.0101980272883141,-0.00472867010651038,-0.00832281172694178,-0.0138134879450556,0.0327573106034804,0.00510575556436253,-0.0200032888936612,-0.0117759152072744,-0.00389450222781916,0.00493274324264249,-0.0041599011062843,-0.0101957804596417,-0.00720689730024506,-0.0228647650445485,-0.00301822345288442,-0.00588369765545844,-0.00930630878415043,0.0359625643126602,0.0286547619275931,-0.0055252289822146,-0.00228546174833232,0.00222771834286647,-0.0131690532290539,-0.0200032888936612,0.0129959284775832,-0.0247117684546381,-0.0208599254278508,-0.00588369765545844,0.0151714191251983,-0.0171848791228479,0.0289477137049839,-0.00588369765545844,-0.0041599011062843,0.00498648016200573,0.0184787138447879,-0.0041599011062843,0.0124742668783606,-0.00389450222781916,-0.00720689730024506,0.00352085764786697,-0.00301822345288442,-7.7402776047147e-05,-0.00389450222781916,-0.0101957804596417,-0.00832281172694178,-0.00588369765545844,-0.00930630878415043,0.00648978522438987,-0.0161384788058301,-0.00588369765545844,-0.0041599011062843,-0.0103100753978524,-0.00301822345288442,0.0286547619275931,0.0236789744303406,-0.00588369765545844,0.0227380413906917,-0.00832281172694178,-0.00720689730024506,-0.00832281172694178,-0.00930630878415043,-0.00588369765545844,0.008227980715042,0.0367241031297914,-0.011014030555939,-0.0041599011062843,0.00352085764786697,-0.0138134879450556,-0.00720689730024506,-0.0101957804596417,-0.00832281172694178,0.0227380413906917,-0.00720689730024506,-0.00832281172694178,-0.00588369765545844,-0.0041599011062843,-0.00832281172694178,-0.00588369765545844,-0.0041599011062843,-0.00832281172694178,-0.00832281172694178,0.0579393420270964,-0.0117759152072744,-0.00588369765545844,-0.00832281172694178,-0.0041599011062843,-0.00588369765545844,-0.0041599011062843,-0.00832281172694178,-0.0041599011062843,0.0579393420270964,-0.0041599011062843,0.0380323909599238,-0.0041599011062843,-0.0041599011062843,-0.00588369765545844,-0.0041599011062843,-0.0041599011062843,-0.0041599011062843,-0.0041599011062843,-0.0041599011062843,-0.0041599011062843,-0.0041599011062843,-0.0041599011062843,-0.00588369765545844,-0.0041599011062843,-0.0462187308708416
"X1003",0.0206067006989084,0.439858749377946,0.0233745975794548,1,0.131213094087632,0.024156643252993,-0.0415923671060869,-0.0643646289958185,-0.0775723017628559,0.0153284693461265,-0.0831080750292223,-0.0148760352537988,0.0200820315764404,0.0612622725443954,-0.0101240806586404,-0.0244579173815932,-0.0299980061918281,-0.0643853763840045,0.249512083179993,-0.0300822773905716,-0.0205505283508431,-0.0537332560097639,-0.0541299844441482,-0.0233812962703655,-0.083487600021925,-0.113735424783101,-0.208384402133715,-0.112056810985342,-0.0269113344178356,0.0179945965570052,-0.00251296785280571,-0.0789221655643088,-0.0573538998916354,0.004152708862127,-0.144518840993041,0.262430309713441,-0.0351959344637989,-0.0308487546820684,-0.145041661679791,-0.0450812927245692,-0.0786087418405814,-0.158285195050992,-0.0858317393240494,-0.0422815655634291,-0.00539538099304507,-0.0278063819627277,0.0344694873844722,-0.026156233711179,0.130890992183097,-0.0246783091884656,-0.0100296972049248,-0.0705614233383292,-0.0952625257522443,0.0456445828014086,-0.0347842085433802,-0.0609214585999115,-0.0506162578412577,-0.0494708435440696,0.0171578332707916,-0.0727133575078827,-0.0155621677231302,-0.0359079164574066,-0.0290146222909618,-0.0959320762322935,-0.071937778891232,-0.043472417841988,-0.0751442080468698,-0.0594559437068478,-0.0291907766318544,-0.0994616208958571,-0.0144166666985797,-0.0547868218751486,-0.00866122207436544,0.0490021059701809,-0.0365566807432677,0.206277727234017,0.0490260300968197,0.137409412390702,0.019488517725622,0.00262356864652586,-0.0214564180769618,-0.03987446900573,0.0628292441706973,0.00426672554542293,0.0557715912706047,0.0113631172831205,-0.0192266591014206,0.0130722211265033,-0.0157840490473945,0.0545185208634948,0.00788466094454747,-0.0251019305145809,-0.0326026922235736,-0.00143040868675201,-0.00866403199321478,0.0186630368012188,-0.0335245385350224,0.0270982679814519,-0.0269113344178356,-0.038439118976162,-0.0193567641591872,-0.00392500602754279,0.00993697019231642,0.0134900674920344,0.0122880731523012,0.00743929092518427,0.00185445893923751,-0.0172794518606132,-0.021856568498651,-0.0224355185996055,-0.0256184062012543,-0.0192540782989156,-0.0670311105464285,0.0080785127744488,0.0134203495272092,-0.0228284123488498,0.00185445893923751,-0.000894323107256836,-0.044318002428777,-0.0102042539085343,0.00310613455583258,0.0144998969509394,-0.0192070761746491,-0.0300557743225706,-0.0359079164574066,-0.0114268395240708,-0.0440385006877678,-0.0102042539085343,-0.0204158901677594,0.0206208770085919,-0.000907043937099954,0.0369501692228655,0.0393624592201175,-0.0195497567327299,0.0542421088229502,-0.0373959185139869,-0.00462590461254859,-0.027404394788523,0.0225731425622013,-0.0240316726161784,-0.0308396602299076,0.00185445893923751,-0.0265361394050445,0.000432813909263967,0.0302573901188303,0.00827238783014878,-0.0381590067053724,-0.0444240795705263,-0.00143040868675201,-0.0373542360773651,0.0522996317735878,-0.0158412877779321,-0.0144327336788479,-0.0135811354955848,-0.0240316726161784,-0.0247947020576829,0.0129614645912142,0.012182046164063,-0.0349250152924184,0.0353509551747197,0.048356558061066,-0.000907043937099954,-0.0169176744255225,0.00732492182329072,0.0303384693746935,-0.0338845407023943,0.0802378410283898,-0.020899875922586,-0.013710317771409,0.0070197101179205,-0.0290228185735032,-0.0134632737963623,-0.0102042539085343,0.0164404701151831,0.0409204721262206,-0.0312990162751704,-0.0194156171562969,0.00948733212275704,-0.0228284123488498,0.024156643252993,0.00185445893923751,-0.00248173720490855,0.0593704893843758,0.0195228382564892,-0.0108883212386943,0.000432813909263967,-0.00105762750987983,-0.049136323700148,-0.0240316726161784,0.00948733212275704,-0.0111933698921113,0.0400393216099824,0.00321434324756383,0.00948733212275704,0.0236197506604892,0.0260290720695304,-0.00769456071183275,-0.0102042539085343,-0.0142239346566245,-0.0134695260786635,0.00185445893923751,0.0330443043386788,0.00455071574038131,0.0216488934081443,-0.00569287983124371,-0.0250102898957585,-0.00349777032027507,-0.0144327336788479,0.0225731425622013,0.042650225136402,-0.0308396602299076,-0.0144327336788479,-0.0102042539085343,0.0291970885242106,-0.035393172420749,0.00185445893923751,0.0375898934687177,0.00948733212275704,0.0303384693746935,-0.00349777032027507,0.00185445893923751,-0.00349777032027507,-0.0228284123488498,-0.0144327336788479,0.0257854506543149,-0.018055908851317,-0.00143040868675201,-0.0102042539085343,0.0232671859153566,0.0682217938277658,0.00185445893923751,0.0026235501115359,-0.0204158901677594,-0.00349777032027507,0.0213874655327291,-0.0204158901677594,-0.0144327336788479,0.0236197506604892,-0.00349777032027507,-0.0144327336788479,-0.0102042539085343,-0.00349777032027507,-0.00349777032027507,0.0236197506604892,0.0309570946613635,0.00948733212275704,0.0134203495272092,-0.0102042539085343,0.00948733212275704,-0.0102042539085343,-0.00349777032027507,0.0236197506604892,-0.0102042539085343,-0.0102042539085343,-0.0144327336788479,0.0236197506604892,-0.0102042539085343,-0.0144327336788479,-0.0102042539085343,0.0236197506604892,0.0236197506604892,0.0236197506604892,0.0236197506604892,0.0236197506604892,0.0236197506604892,-0.0102042539085343,-0.0144327336788479,-0.0102042539085343,-0.0578515420108002
"X1004",-0.0425565697573767,0.117995151507444,0.0307562022253967,0.131213094087632,1,0.00882638639552866,-0.014082213017115,-0.0398353669137789,-0.106773422942312,-0.00749409911486,-0.0586114922505679,-0.0303447044656125,-0.0378849904196956,0.0117956107600483,-0.0626353454980212,-0.0155035765453556,-0.0675325119223417,0.068230662847537,-0.0258366081187674,0.014805370545942,0.0643884236060315,0.0196539275698185,-0.0230481547954458,0.0091219743008993,-0.0272907266877772,-0.0211064407244909,-0.0775808949032811,-0.0254783103820178,0.0167727577534185,0.0091219743008993,0.0786489052123694,-0.0513556948170697,-0.0289869711596812,0.00833238240201968,-0.0649289239071725,-0.0123399811742904,-0.0252158221770274,-0.0116555219693324,-0.0561660513077915,0.0308423954827022,-0.0556710536613227,-0.0638862340309402,-0.0644480783211446,-0.0103077262167048,0.0603292103145748,-0.0129479364421135,-0.0159067860179655,-0.0334262994152625,-0.0156651803702213,-0.00511439332717024,-0.0231031065729523,-0.0708550562718834,-0.0250437009368458,-0.006357914180304,-0.022049286998073,-0.0240315195434051,-0.0173282690390859,0.0433374213857785,0.00636292064152493,-0.0479724802253952,0.00877748993071868,-0.00269955640943446,-0.0111076350195297,-0.0207623367584637,-0.0138102225350816,-0.00884148675494704,-0.0375978635724542,-0.0296921579819417,0.0240391068587461,-0.0119320082621261,-0.0102420915655673,-0.0126129816606575,-0.0262530633348947,-0.00256866885937677,0.0027758830189078,0.0138578832491572,-0.0211371916539705,0.0076395056958389,0.0271639728931867,-0.0213941117464507,-0.0267697414825271,-0.0498041286990312,-0.00497577736175267,0.0187568971885337,0.00295570983055194,-0.0029478031067034,0.0121500094393274,-0.0418821841872581,-0.0143347576352819,-0.0302037671474272,0.0204988924606876,0.0118051997450147,-0.0275622163560247,0.00882638639552866,0.0145257884539798,0.0155887926002009,-0.0280477061520091,0.0484040621377868,-0.00130227332336332,0.0507695951402598,0.0292995641308344,0.000779953779719703,-0.0111441083573434,0.0128488776084392,0.0191499970591892,-0.00448046828392217,0.0109116376030805,-0.0255424321219311,-0.0193618439729851,-0.0264056658531204,0.0128488776084392,-0.00242408175754931,-0.0456646919766559,0.000779953779719703,-0.0133490607819697,-0.00448046828392217,0.0109116376030805,0.0366851511938519,0.0185899225255951,-0.0144543780230069,-0.00379899579632653,-0.00185953499181771,-0.00933271958592898,0.0369032513585722,-0.00627998437336958,-0.00263264203767543,-0.0234005261060013,0.0166746664998155,0.0177912440213884,0.0285909066884568,-0.016347457742277,-0.0029478031067034,0.0094686272923941,0.00905726942639288,0.0210008049520765,0.0168145271473192,-0.00262428283444014,-0.00263264203767543,0.0233756266648074,-0.0100428898774176,-0.00776977683820461,0.0288883331381277,0.0931780945250968,-0.00442396156327798,0.0154369705604653,0.0250868947964302,-0.0368838299352999,0.0242409162893961,0.00882638639552866,-0.00262428283444014,-0.0125050010443601,0.00385076048474317,-0.0204440413154533,-0.00327082394988156,0.021176580528038,-0.00958074097530868,0.0168145271473192,0.0245693374218882,0.00859230251868134,0.00444862585808986,-0.0122459013660351,0.00421226636726147,0.0141576894528455,0.00497612290831758,0.0022210916197094,-0.019806351497033,0.00210917090143379,0.0496379299747053,-0.00442396156327798,0.0141576894528455,0.0298991582999523,0.0459732884925415,0.0166746664998155,0.00272092692689424,0.0288883331381277,-0.0110081082604851,-0.0173371702427266,0.00157017027228183,-0.018408515758287,-0.0147219926089355,-0.00706505793196676,0.00850429920267032,-0.0398370341972454,0.0256238731811658,0.0133689603612265,0.0216085666006407,-0.0218896638736363,0.00395304787327662,-0.028774572120691,0.0235843818600169,0.00272092692689424,-0.0218896638736363,0.018913197756617,0.00157017027228183,0.0166746664998155,0.0245693374218882,0.00944757919044263,-0.0144543780230069,0.00882638639552866,0.00842805483139338,-0.00706505793196676,0.0218469947321353,0.0120718861673758,0.000281302781907533,-0.00588601414764592,0.00272092692689424,-0.0133490607819697,0.00157017027228183,0.00944757919044263,-0.00634016414999551,-0.00776977683820461,0.0235843818600169,0.0166746664998155,0.070816330140565,-0.0173371702427266,0.0109116376030805,0.00838492278421322,0.0235843818600169,-0.0133490607819697,0.0022210916197094,0.0288883331381277,0.0022210916197094,0.0233756266648074,0.0235843818600169,-0.0122459013660351,-0.00896075116287454,-0.0147219926089355,-0.0144543780230069,0.0218469947321353,0.0365761970654594,0.0109116376030805,0.0408690578276074,0.0177912440213884,0.0177912440213884,-0.025041753467014,-0.0289192131836487,0.0235843818600169,0.0166746664998155,-0.0133490607819697,-0.0204440413154533,-0.0144543780230069,0.0022210916197094,0.0333613964230675,0.0166746664998155,0.0361878398950309,0.0235843818600169,0.0022210916197094,-0.0144543780230069,0.0235843818600169,-0.0144543780230069,0.0022210916197094,0.0166746664998155,-0.0144543780230069,-0.0144543780230069,-0.0204440413154533,0.0166746664998155,-0.0144543780230069,0.00157017027228183,-0.0144543780230069,0.0166746664998155,0.0166746664998155,0.0166746664998155,0.0166746664998155,0.0166746664998155,0.0166746664998155,0.0166746664998155,0.0235843818600169,-0.0144543780230069,-0.00562239100396014
"X1005",-0.0133503303455497,0.00288968010755593,-0.011014030555939,0.024156643252993,0.00882638639552866,1,-0.00522541339740673,0.0689318931041787,-0.013076363090017,0.00369624881606335,0.0122940428995425,-0.00736239937169857,0.0635075923334978,0.0683434925807772,0.00837730596098536,-0.00435177860954147,-0.00820444582441952,-0.0142581376903749,0.0160825286847743,-0.00510339882423434,0.00352932689603064,0.0211309599881666,-0.00697031814590418,-0.003680087033539,-0.0108217095129246,0.0247348544499881,-0.0101609729883914,-0.0111619284487779,0.0504726090865236,-0.003680087033539,-0.0158807932491216,-0.0116790303785594,-0.01208138826981,-0.00247570803360556,-0.0226440769546731,0.0228934751219473,-0.0117602641908157,0.00146435358355442,-0.0156769904559682,-0.0074793947983558,-0.000890136197672618,-0.018895881518047,-0.00825795426357949,-0.00590809553389731,-0.00485074124912354,-0.006939348585141,-0.0107354184877912,-0.00639248728493948,-0.00897883589816448,-0.00293142481082587,-0.0045392554864601,-0.01253310296143,-0.0112458056542135,-0.00776515091953985,-0.0061891277301817,-0.00590809553389731,-0.00668700382369335,-0.0109074938395819,-0.00485074124912354,-0.00885368588712974,-0.00601489109566884,-0.00565170793904141,-0.00506211438694667,0.0242919833914471,-0.00812362415500131,-0.00430369246244219,-0.00979520510470312,-0.00706250283203281,-0.00583590222948493,-0.0118813873721159,-0.00485074124912354,-0.005799495527814,-0.00230420157457409,0.0113123265951781,-0.0067826157398651,0.0145485508957311,-0.00632536072557651,-0.00988770106448779,-0.00395145280002493,-0.00300077235010805,-0.00727357363601871,-0.00750839480381797,-0.00463027993485568,-0.00510339882423434,-0.00435177860954147,-0.00168959691045136,-0.00601489109566884,0.0242919833914471,-0.00639248728493948,-0.00449308576653798,-0.0034481745731887,-0.00350754759406709,-0.00405509131239213,-0.00168959691045136,-0.00449308576653798,-0.00608513281907629,-0.00300077235010805,-0.00444645953148189,-0.00444645953148189,-0.00605010525032905,-0.0019162854091061,-0.00362345916523268,-0.00255720949633248,-0.00221353775161377,-0.00430369246244219,-0.00142762547185129,-0.00110556724448783,-0.00293142481082587,-0.00384512674726593,-0.00313496403155061,-0.00221353775161377,-0.00415624347746286,-0.00565170793904141,-0.00362345916523268,-0.00127675303865273,-0.00142762547185129,-0.00110556724448783,-0.00565170793904141,-0.00756610429386857,-0.000638145683477443,-0.00319999707428973,-0.0019162854091061,-0.00502051091477001,0.0385041097018299,-0.00565170793904141,-0.00271298660492823,-0.00476371690985842,-0.000638145683477443,-0.00127675303865273,-0.00941810087055621,-0.00389863933842952,-0.00168959691045136,-0.00400359481824096,-0.00615464097500281,-0.00471963550167234,-0.00522541339740673,-0.0046751602979002,-0.00271298660492823,-0.00142762547185129,-0.00319999707428973,-0.00247570803360556,-0.00110556724448783,-0.00356596030370393,-0.00306858555929569,-0.00156407403055205,-0.00379088540027991,-0.0028604313246363,-0.00410596658873033,-0.00168959691045136,-0.0046751602979002,-0.00239147203168195,-0.00221353775161377,-0.000902583058055168,-0.00395145280002493,-0.00319999707428973,-0.00373588353551077,-0.00522541339740673,-0.00313496403155061,-0.00306858555929569,-0.00255720949633248,-0.0019162854091061,-0.00389863933842952,-0.00180647310272981,-0.0028604313246363,-0.00127675303865273,-0.00211904501589911,-0.00405509131239213,-0.00458498249850454,-0.00306858555929569,-0.00180647310272981,-0.00278766611645004,-0.00211904501589911,-0.000638145683477443,-0.00156407403055205,-0.00110556724448783,-0.00350754759406709,-0.00271298660492823,-0.000902583058055168,-0.00142762547185129,-0.00168959691045136,-0.00110556724448783,-0.00293142481082587,-0.003680087033539,-0.00230420157457409,-0.0020201861195474,-0.00306858555929569,-0.00263623008171039,-0.00379088540027991,-0.00319999707428973,-0.000902583058055168,-0.00156407403055205,-0.00263623008171039,-0.0019162854091061,-0.000902583058055168,-0.000638145683477443,-0.00313496403155061,-0.00142762547185129,-0.000638145683477443,-0.00168959691045136,-0.00278766611645004,-0.00110556724448783,-0.00221353775161377,-0.00271298660492823,-0.00247570803360556,-0.00278766611645004,-0.00156407403055205,-0.00127675303865273,-0.000902583058055168,-0.00142762547185129,-0.0020201861195474,-0.00247570803360556,-0.000902583058055168,-0.000638145683477443,-0.00338779072985137,-0.00271298660492823,-0.00110556724448783,-0.00211904501589911,-0.000902583058055168,-0.00127675303865273,-0.00127675303865273,-0.00110556724448783,-0.00127675303865273,-0.00142762547185129,-0.000902583058055168,-0.0019162854091061,-0.00230420157457409,-0.00168959691045136,-0.000638145683477443,-0.00221353775161377,-0.00211904501589911,-0.00110556724448783,-0.00156407403055205,-0.00127675303865273,-0.00127675303865273,-0.00110556724448783,-0.00127675303865273,-0.000902583058055168,-0.000638145683477443,-0.00127675303865273,-0.000902583058055168,-0.000638145683477443,-0.00127675303865273,-0.00127675303865273,-0.000638145683477443,-0.00180647310272981,-0.000902583058055168,-0.00127675303865273,-0.000638145683477443,-0.000902583058055168,-0.000638145683477443,-0.00127675303865273,-0.000638145683477443,-0.000638145683477443,-0.000638145683477443,-0.000902583058055168,-0.000638145683477443,-0.000638145683477443,-0.000902583058055168,-0.000638145683477443,-0.000638145683477443,-0.000638145683477443,-0.000638145683477443,-0.000638145683477443,-0.000638145683477443,-0.000638145683477443,-0.000638145683477443,-0.000902583058055168,-0.000638145683477443,-0.00917616595280691
"X1006",0.0439393763731569,-7.21812620945044e-05,0.0198682693902351,-0.0415923671060869,-0.014082213017115,-0.00522541339740673,1,0.0540040724877823,0.00144701218636417,-0.0332456635467404,-0.0112610166095493,0.0105263635105052,0.0108136220135718,0.0601090627127101,-0.0251849323220284,0.00493841706243099,-0.0153394191169176,-0.02035053927911,-0.0163469762457501,-0.0157832725802866,-0.00372428782604285,-0.016555358230132,-0.0215570906874261,0.0103049211415841,-0.017821850741445,0.00766576262402257,0.00670875274194051,-0.00405583482643185,-0.0137515575834152,-0.0113813987050558,-0.0319256684691594,-0.0214670457257112,-0.0160058284516942,0.0244393055796292,0.0416896993100577,-0.0309218744162251,-0.0218043168797767,-0.00363067162268169,-0.0195598386035502,0.0424841903466059,0.0164804595314409,-0.0127606570083551,-0.0155649256117066,-0.0182719566809213,-0.0150018789414999,-0.0214613111812476,0.0534563580810391,0.018284530701304,0.0184235078708185,-0.00906601236379386,0.0389250634406348,-0.0249523161014221,-0.0045111372297048,-0.0134554715418494,-0.00605882786126653,-0.00459435563008736,-0.0206808849807276,0.0284239825976015,0.018096365400459,-0.00866728900524228,-0.0051575707172704,-0.00320552014283552,0.0160993969421549,-0.00305333835996869,-0.0149972417431637,-0.013310022119747,-0.0217517943179665,-0.0218421901043063,0.00963130100758875,-0.000643742990878421,0.0346454875714384,-0.0179360896328486,-0.00712620016266992,-0.0204370383166616,0.0149956570040003,-0.0237544673921843,0.00606385992116283,-0.0221091341178046,-0.01222065113445,-0.00928048337673238,0.0224084076840776,-0.00142835057504863,0.00299586308002594,-0.0157832725802866,-0.0134587380624241,-0.00522541339740673,-0.0051575707172704,-0.0135777189196614,-0.00708517923196635,-0.0138957584586805,-0.010664163446253,0.0118887354724775,-0.0125411737796211,0.041712823830381,0.0395990445130488,-0.00552345638391451,-0.00928048337673238,0.0402910219347411,0.0222768287620223,0.00802826885411858,-0.00592649251904884,0.0108136220135718,-0.00790867731791824,-0.00684580431663916,0.00528815693646512,-0.00441521478936532,-0.00341918587524966,-0.00906601236379386,-0.0118918167378294,0.0157062166902657,-0.00684580431663916,0.0063899067504193,-0.0174790272166203,-0.011206265796204,-0.00394861188019898,-0.00441521478936532,-0.00341918587524966,0.0110679869309493,0.0198751271124421,-0.00197359203447495,-0.00989662533129804,0.0354791370332284,0.0324885292171797,-0.017246299595865,-0.0174790272166203,0.0209196209307295,0.00211047499684753,-0.00197359203447495,-0.00394861188019898,-0.0114317683091292,-0.0120573150345334,-0.00522541339740673,-0.0123819106626063,0.00727023346375121,0.00239997063355874,-0.0161606268364349,0.00269501908159151,-0.0083904489080711,-0.00441521478936532,-0.00989662533129804,-0.0076566178872889,-0.00341918587524966,0.0113410733185595,-0.00949020916968236,-0.00483720900720592,0.0093386488742263,-0.00884645093374576,-0.0126985156573968,-0.00522541339740673,-0.0144588600420354,0.0258223192227688,-0.00684580431663916,-0.00279141703838335,-0.01222065113445,0.0149948868656031,0.00981365802817813,-0.0161606268364349,-0.00969549775424042,-0.00949020916968236,-0.00790867731791824,-0.00592649251904884,-0.0120573150345334,-0.00558687619198921,-0.00884645093374576,-0.00394861188019898,-0.00655356679885804,-0.0125411737796211,0.0382682184007619,-0.00949020916968236,-0.00558687619198921,-0.00862141010219026,-0.00655356679885804,-0.00197359203447495,-0.00483720900720592,-0.00341918587524966,-0.010847786283643,-0.0083904489080711,-0.00279141703838335,-0.00441521478936532,0.041712823830381,-0.00341918587524966,-0.00906601236379386,0.0103049211415841,0.0273420174073536,0.0330377469128242,-0.00949020916968236,0.0220031000237092,-0.0117240646192732,-0.00989662533129804,-0.00279141703838335,-0.00483720900720592,-0.00815306414352766,-0.00592649251904884,-0.00279141703838335,-0.00197359203447495,-0.00969549775424042,-0.00441521478936532,-0.00197359203447495,-0.00522541339740673,-0.00862141010219026,-0.00341918587524966,-0.00684580431663916,0.0795397606083306,-0.0076566178872889,0.0199103697415813,-0.00483720900720592,-0.00394861188019898,-0.00279141703838335,-0.00441521478936532,-0.00624782606374326,-0.0076566178872889,-0.00279141703838335,-0.00197359203447495,0.0365802369951335,0.0209196209307295,-0.00341918587524966,0.030908281982493,-0.00279141703838335,-0.00394861188019898,-0.00394861188019898,-0.00341918587524966,-0.00394861188019898,-0.00441521478936532,-0.00279141703838335,-0.00592649251904884,0.0273420174073536,-0.00522541339740673,-0.00197359203447495,-0.00684580431663916,-0.00655356679885804,-0.00341918587524966,-0.00483720900720592,-0.00394861188019898,-0.00394861188019898,-0.00341918587524966,0.0581223703274743,-0.00279141703838335,-0.00197359203447495,-0.00394861188019898,-0.00279141703838335,-0.00197359203447495,-0.00394861188019898,-0.00394861188019898,-0.00197359203447495,-0.00558687619198921,-0.00279141703838335,-0.00394861188019898,-0.00197359203447495,-0.00279141703838335,-0.00197359203447495,-0.00394861188019898,-0.00197359203447495,-0.00197359203447495,-0.00197359203447495,-0.00279141703838335,-0.00197359203447495,-0.00197359203447495,-0.00279141703838335,-0.00197359203447495,-0.00197359203447495,-0.00197359203447495,-0.00197359203447495,-0.00197359203447495,-0.00197359203447495,-0.00197359203447495,-0.00197359203447495,-0.00279141703838335,-0.00197359203447495,-0.0102629277153362
"X1007",-0.0149112538431244,-0.0653051223844687,-0.0241607595338887,-0.0643646289958185,-0.0398353669137789,0.0689318931041787,0.0540040724877823,1,0.0525458547890027,-0.0115759046024672,-0.00600573274190076,-0.019649726896044,-0.0140631894773759,-0.0131485248683734,-0.0267451609352273,-0.0168899066772409,-0.0157045480361812,-0.0784292148030637,-0.0633498630688699,0.018195387696045,-0.0382378719835838,-0.00952794640508905,0.0199296287228139,0.0205945394563138,-0.0294188187072412,0.0938148165533116,0.0510242758172246,0.0362964736169658,-0.00277151249680119,0.00315578435659899,-0.0432061941672592,-0.0335453284093382,0.0160851340467125,-0.00960859487567069,0.0639426738799043,-0.0577288037078344,-0.0280730185556207,-0.00678314999774901,-0.00967467595112179,-0.00264667422204668,-0.0195396617989165,0.0246137604371062,-0.0320503613283483,-0.000932897907066295,-0.00551870723596419,0.0202478082599748,-0.016325899767202,-0.00440950122885046,-0.0274192249467868,0.0104515466597467,-0.0176175326066376,-0.0264345605718252,-0.0010513204661097,-0.0301377175020258,-0.00298106998717341,0.0100657563949937,0.00336514091303613,-0.00484625808014603,0.0610200348594785,-0.0268379858070943,-0.0233446961334088,-0.0104572838167951,0.00588851018522068,0.0543836701790457,-0.00709932435159541,0.0281631306695864,-0.024279090384,-0.00884913775712981,-0.000391534686664061,0.064203464976369,-0.00551870723596419,-0.000116010389966032,0.0742084732243516,0.00362280185000153,-0.0263243508350204,-0.01381033990677,-0.014246160755259,-0.0179412458371692,-0.0153361820579782,0.052342202267782,-0.0192027245082972,-0.0203789989736279,-0.0179708121680973,-0.00713957588006193,-0.00209608803845877,-0.00655757948649068,-0.00172200023927946,-0.0302466850193343,-0.0146098524550096,-0.017438340986207,-0.0133828836375774,0.00466994123239781,0.000114600136143842,-0.00655757948649068,-0.017438340986207,-0.00223368735091288,0.116330852919185,-0.00277151249680119,-0.017257377561946,-0.0127303001086019,-0.00743739161174163,-0.0140631894773759,-0.00992491429883667,0.0202543572883231,0.0730295384541482,0.0391085695242456,-0.00429087259721178,0.0104515466597467,0.00177890870671126,0.00825917197596092,-0.00859107261783369,-0.0161310054487435,-0.0219351277310241,-0.0140631894773759,-0.00495527038656052,-0.00554082896973494,-0.00429087259721178,-0.0104572838167951,0.0228330685156226,-0.00247673928466544,-0.0124196694734644,-0.00743739161174163,0.173569471347123,-0.0216430685663728,0.0124984040116629,-0.0105295086641989,-0.00494446287626538,-0.00247673928466544,-0.00495527038656052,-0.0294382380190056,-0.015131205077832,-0.00655757948649068,-0.0155385530654786,-0.0238870864137717,-0.00465021066949505,0.00448094778900945,-0.0181449996007486,-0.0105295086641989,-0.00554082896973494,0.0876611622059086,0.0162008994505645,-0.00429087259721178,-0.0138400277560652,-0.0119096416380185,-0.00607040632866745,-0.0147129958528816,-0.0111017637762722,-0.0159358732890209,-0.00655757948649068,-0.0181449996007486,0.0174304726039127,0.0490997871944799,0.0670683033574102,-0.0153361820579782,-0.0124196694734644,0.0198654262235908,-0.00789983338568377,-0.0121672664627982,-0.0119096416380185,-0.00992491429883667,-0.00743739161174163,0.00134596654982552,-0.00701119355041527,-0.0111017637762722,-0.00495527038656052,0.0821489554396937,-0.0157384186970876,-0.0177950060112741,-0.0119096416380185,-0.00701119355041527,0.0350675236765317,0.0219000970717996,-0.00247673928466544,-0.00607040632866745,-0.00429087259721178,0.00466994123239781,0.0130397798775624,-0.00350306046947933,0.0391085695242456,0.031187156808844,-0.00429087259721178,0.0759380871297251,-0.0142829707431158,-0.008942952537792,-0.00784064588097421,-0.0119096416380185,0.0382677221962818,0.00222429479606671,-0.0124196694734644,-0.00350306046947933,-0.00607040632866745,-0.0102316050642372,0.0591541406185232,-0.00350306046947933,-0.00247673928466544,-0.0121672664627982,-0.00554082896973494,-0.00247673928466544,0.0689318931041787,-0.0108193510696788,-0.00429087259721178,-0.00859107261783369,-0.0105295086641989,-0.00960859487567069,-0.0108193510696788,-0.00607040632866745,-0.00495527038656052,-0.00350306046947933,-0.00554082896973494,-0.00784064588097421,0.0162008994505645,-0.00350306046947933,-0.00247673928466544,-0.0131485248683734,0.0130397798775624,-0.00429087259721178,-0.00822433211214747,-0.00350306046947933,-0.00495527038656052,-0.00495527038656052,-0.00429087259721178,-0.00495527038656052,-0.00554082896973494,-0.00350306046947933,-0.00743739161174163,0.0464913313036371,0.031187156808844,0.0973142124761266,-0.00859107261783369,-0.00822433211214747,-0.00429087259721178,-0.00607040632866745,-0.00495527038656052,-0.00495527038656052,-0.00429087259721178,-0.00495527038656052,-0.00350306046947933,-0.00247673928466544,-0.00495527038656052,-0.00350306046947933,-0.00247673928466544,-0.00495527038656052,-0.00495527038656052,-0.00247673928466544,-0.00701119355041527,-0.00350306046947933,-0.00495527038656052,-0.00247673928466544,-0.00350306046947933,-0.00247673928466544,-0.00495527038656052,-0.00247673928466544,-0.00247673928466544,-0.00247673928466544,-0.00350306046947933,-0.00247673928466544,-0.00247673928466544,-0.00350306046947933,-0.00247673928466544,-0.00247673928466544,-0.00247673928466544,-0.00247673928466544,-0.00247673928466544,-0.00247673928466544,-0.00247673928466544,-0.00247673928466544,-0.00350306046947933,-0.00247673928466544,-0.0283301388270546
"X1008",-0.0578988220271819,-0.137669888838568,-0.011178252654495,-0.0775723017628559,-0.106773422942312,-0.013076363090017,0.00144701218636417,0.0525458547890027,1,0.130955488969017,-0.0125942235402848,-0.0746949199641242,-0.0488114833963823,-0.038168517256814,-0.0512900603908762,-0.0183304999113145,0.0508003435130999,-0.0675599532195889,0.0262797136448108,-0.011496203241872,-0.0663691091299156,-0.0382510500856743,0.0270165435975122,-0.0127478279874469,0.0209658290840449,-0.00953608762309825,0.0169937542607068,0.0564505622594366,0.00871653787061229,0.00377246538652146,-0.0574359439157136,-0.00640592097979804,0.0431176026054211,0.00179693974682634,0.245118973083747,0.0403494842674032,-0.0402892273288276,-0.0287437142844392,0.0580911404186135,0.00876109196144309,-0.0435043229561408,0.0454193168524746,-0.0360504317117953,0.0202646457110523,0.00688263561083867,0.103367030297092,0.0397991085133865,0.0664838224828483,-0.0601066304641669,-0.00200812165506361,0.0346755939958899,0.10938103110719,0.0112369608279033,-0.0125975447327576,0.060301118831014,0.0480496559368281,0.0350967128312736,-0.0370661438830254,-0.0225333662274523,0.0791339012886484,0.0275808384456228,-0.0546138136500313,-0.037449529815165,0.00191513790959609,0.060925324356612,0.0220141389765878,0.0053744343355901,0.0273991102528837,0.0035329924461099,0.0452928896078073,0.0657146392874205,0.0303725439560667,0.0121753913169501,-0.0595244625625177,-0.00116655684578907,-0.0621029758750207,-0.0559261465215535,-0.0556297352411133,-0.00123978157460586,0.03450791634407,-0.0648443207093394,-0.00949149308160704,-0.0502825843234013,-0.0194964117526071,-0.0650460333379636,0.0107615050512396,0.010510942608039,-0.0702406128537671,-0.0301473841658548,-0.00307791037058906,-0.0526886214035918,-0.0205478822046705,-0.0220868227103592,-0.013076363090017,-0.00760585366656376,-0.0678346219142303,0.000830968543324422,-0.00958069640507866,-0.0187293135429241,-0.0288791111618351,-0.00281472516802732,-0.00967121640220913,0.00501298016096926,-0.0184325665910473,-0.0204892516036941,0.0151354816609492,0.00444199031953544,-0.0157942339272125,-0.0372933783624991,-0.000304636295903347,-0.000215097823996503,0.0166991138572264,-0.0111204914078303,-0.0208541498291158,0.0261452033829764,0.0151354816609492,-0.0137556995383837,-0.0256182654885639,-0.00989246512919973,0.0130678746612517,-0.0229599610759636,0.00769932473954549,-0.0231794028964425,-0.0400110496426697,0.0468706049151045,0.0481135825875582,0.0419503191027117,-0.0184438509890648,-0.0211394831536384,-0.0407941410860434,0.00178912038387121,-0.00115742901938873,-0.0346060212099907,-0.0476328522974947,-0.0285116955504757,-0.0259199826143384,-0.021870569014661,-0.0188702518259389,-0.0271623290413667,0.00864330209658995,-0.0145031694320355,0.00444199031953544,-0.0178606103389326,-0.0293957998405427,-0.0323329039094574,-0.0186421201824954,-0.0120486681072436,-0.0791101003620528,-0.0249952971606454,-0.00444716614268459,-0.0100733244491213,0.00889363655952888,0.0184829931149274,0.029569161746438,0.0149639547311007,-0.015736235447781,-0.0181008412427091,0.00614557098980527,-0.0162195218972201,-0.0107714414384408,-0.0133287750756001,-0.00341399776123428,0.0258422628427783,-0.0332359446517609,-0.00537792097476679,-0.0136821179657763,-0.0320988723278349,-0.0348505398502771,0.00354489501776377,-0.00760920028807944,-0.00811965822132392,-0.0327073448238671,-0.0184438509890648,-0.0194605371381366,0.00444199031953544,0.0140927587497165,-0.00398495528960617,-0.00380184750882296,0.0292347518950544,-0.00115742901938873,-0.0137556995383837,0.00488493448101083,-0.0347748858194048,-0.0315868414609323,-0.00850939921530254,-0.00304324395389751,-0.00727554315658049,0.0508872530525979,-0.0166393084414529,-0.00380184750882296,0.00628419640450505,-0.0149330384900345,0.00769932473954549,0.0184829931149274,0.0130678746612517,-0.0196552581530292,-0.0130630588072614,-0.0184438509890648,-0.00115742901938873,0.0281054348968165,0.00444199031953544,0.00889363655952888,0.00345769297856017,0.00994699433625727,-0.00811965822132392,0.00628419640450505,-0.00537792097476679,0.0184829931149274,-0.0412615992754719,-0.0384365235742055,-0.0145031694320355,-0.0260866881325733,-0.0184438509890648,-0.00232074720194569,-0.00398495528960617,-0.0137556995383837,-0.0231947313948217,-0.0260866881325733,-0.03690104533251,-0.0211394831536384,-0.0319533893963028,-0.0211394831536384,0.00103621142684388,-0.00380184750882296,-0.00281472516802732,-0.00532950179420284,-0.013076363090017,0.0130678746612517,-0.00932383220752189,-0.00416950453673097,0.00444199031953544,0.00628419640450505,-0.00537792097476679,-0.00537792097476679,0.00444199031953544,-0.0211394831536384,-0.0260866881325733,0.0130678746612517,-0.0211394831536384,-0.00380184750882296,0.0130678746612517,-0.03690104533251,0.0261452033829764,0.0130678746612517,-0.0187596879983653,0.0184829931149274,-0.0211394831536384,-0.0184438509890648,-0.00380184750882296,-0.0184438509890648,-0.03690104533251,-0.0184438509890648,-0.0184438509890648,0.0130678746612517,0.0184829931149274,-0.0184438509890648,0.0130678746612517,-0.0260866881325733,0.0130678746612517,-0.0184438509890648,-0.0184438509890648,-0.0184438509890648,-0.0184438509890648,-0.0184438509890648,-0.0184438509890648,0.0130678746612517,-0.00380184750882296,0.0130678746612517,-0.0421018708934402
"X1009",-0.0545965814974063,0.0136161722169627,0.0515455850207805,0.0153284693461265,-0.00749409911486,0.00369624881606335,-0.0332456635467404,-0.0115759046024672,0.130955488969017,1,-0.0633410745593577,-0.0646125850847429,-0.064058471220231,-0.0288871780797763,-0.044203964721645,-0.0269706238838907,0.0175798854263978,0.0652892070199869,0.138255964792728,-0.0414907095632386,-0.0919545377237965,-0.0310313415904343,-0.00492449635775816,-0.015049827715397,0.0170648782222335,-0.0901726683574857,-0.163644795715274,-0.0600670496276707,0.0256078325809635,-0.0317778301309575,0.039161241429945,-0.0175075475395474,0.0293064427799244,0.00187918941093527,-0.0558041806022196,0.389594712435114,0.0152937930429069,0.447979867952955,-0.108283104461166,-0.028627431918226,-0.043634227727814,-0.124769017752476,-0.0742612743140417,-0.0116927037111548,0.00878810686683316,-0.0309386984585051,-0.0667981377403126,-0.00232315832368536,-0.0326162570514513,-0.0494248430293879,0.00798487393911012,-0.00504388437844629,-0.0782411834203602,-0.0136548741761991,0.0255529515039358,0.0129248526599894,-0.0411717131551197,-0.0700324287548499,0.0343188338513327,-0.0380300999289723,-0.00165681447500703,-0.0500262637475088,-0.0402478593877908,-0.0660650889875149,-0.036535706637435,-0.0206431567073066,-0.0281446434895635,-0.0557696450692976,0.0407269391874024,-0.0875196178228114,-0.00397725662541662,-0.0256699442306476,-0.00888598168385481,0.273021381482576,-0.010266990317042,0.0741047770694849,-0.0426398796008522,-0.057397673974997,-0.0292368244011183,0.0104618282037331,-0.0649070563581203,-0.0520156767357025,-0.0490222977044947,-0.0333899147248466,-0.0222403352726936,-0.0204413319654676,0.00180008852714439,-0.0471228394850839,-0.0186308495335876,0.000659558833136842,0.0168859349480008,-0.0148756796554605,-0.0476116313992118,0.00369624881606335,0.0373385425184688,-0.0418751501791941,-0.00999839189310595,-0.034605842791377,-0.0207103792439138,-0.0339090984228072,0.0163592986774346,-0.0244260950872559,-0.00924696178406663,-0.0241449341489512,-0.00151525264136803,0.00108364097586147,-0.00284611549031854,-0.0284856761965748,-0.00455813619251612,-0.0211331012819252,0.00352484034980087,0.0288844421762877,-0.0169961421089885,-0.0244260950872559,0.0073530137471327,-0.0131928988648531,-0.00284611549031854,-0.0243361691397708,-0.00371475792348225,-0.0122787832545287,-0.0103712819840414,0.0163592986774346,-0.0184115520127193,-0.0292265946739247,-0.0353462096859443,0.000552051137604675,-0.00504557092236243,-0.0122787832545287,0.0073530137471327,-0.0151456787069012,-0.00652409889186788,-0.00837254157470212,-0.0205724814854358,-0.0271166527346752,-0.0208902273544092,-0.0134520356747427,-0.0237971368279911,-0.0295928465079138,-0.0131928988648531,-0.0103712819840414,-0.00637333551539423,0.0155803732535534,-0.0341039011537531,-0.0123469232120986,-0.0170606823598252,-0.0133694996840767,-0.0264336703987554,-0.0289305692315209,0.00369624881606335,0.0070771798551915,-0.0460151459088073,0.0127480985160516,-0.0173669148378105,-0.00323990520660319,0.00242896195165281,-0.0169428746899045,-0.053039291418738,-0.00807049027209654,0.000995019589674397,-0.0172384010601759,-0.0155794293348064,-0.00125556213350016,0.0216944340526764,-0.0264336703987554,0.0073530137471327,-0.00224442218496887,0.0385607799710907,-0.00281300197414886,-0.00567595181121211,-0.0121776130950313,-0.0169579043386388,-0.00224442218496887,0.0196291381645659,-0.00402647179405299,-0.0212726042341905,-0.0324137678856198,-0.0145203976851546,0.00519811226829894,0.00108364097586147,0.00369624881606335,-0.00284611549031854,-0.00754650936376164,-0.0540818333517048,-0.0354734539174507,-0.0186688397544543,-0.00567595181121211,-0.00420198431188927,-0.0242008171440901,-0.00397116001619428,0.00519811226829894,-0.0170606823598252,-0.0197095297937394,0.0057130560066876,0.00519811226829894,-0.0122787832545287,-0.0146017957770109,0.0296367206572906,-0.0122787832545287,-0.00837254157470212,0.0270587555208532,-0.0212726042341905,0.00352484034980087,-0.0220566220965342,-0.00637333551539423,-0.0169579043386388,-0.0170606823598252,-0.00860671797389277,0.00519811226829894,-0.0274694387055677,0.00153342490812337,-0.0146258604417237,-0.0173669148378105,-0.0122787832545287,-0.0107379367044627,-0.0295928465079138,0.0155803732535534,-0.00224442218496887,0.00519811226829894,-0.0245664496949182,0.0073530137471327,-0.00284611549031854,0.0073530137471327,0.00108364097586147,-0.0173669148378105,-0.00493318666405939,-0.00888598168385481,-0.00837254157470212,-0.0122787832545287,-0.00569841781644983,-0.0215088525213097,-0.0212726042341905,0.00900773877171917,-0.00860671797389277,-0.00860671797389277,-0.00284611549031854,-0.0245664496949182,0.00519811226829894,-0.0122787832545287,-0.0245664496949182,-0.0173669148378105,-0.0122787832545287,-0.0245664496949182,0.0233127454681582,0.0196291381645659,-0.0121776130950313,-0.0173669148378105,-0.00860671797389277,-0.0122787832545287,0.00519811226829894,-0.0122787832545287,-0.0245664496949182,-0.0122787832545287,0.0196291381645659,-0.0122787832545287,-0.0173669148378105,-0.0122787832545287,-0.0122787832545287,-0.0173669148378105,-0.0122787832545287,-0.0122787832545287,-0.0122787832545287,-0.0122787832545287,-0.0122787832545287,-0.0122787832545287,-0.0122787832545287,-0.0122787832545287,0.00519811226829894,-0.0122787832545287,-0.00654315060381095
"X1010",-0.0320349835270952,-0.115348905552533,-0.0453581945561843,-0.0831080750292223,-0.0586114922505679,0.0122940428995425,-0.0112610166095493,-0.00600573274190076,-0.0125942235402848,-0.0633410745593577,1,0.0954130633269853,0.0968496558393003,0.212099388116748,-0.0174832746816346,-0.0193714218069122,-0.00882374138386672,0.0137547835956491,-0.0590844965109761,-0.00208473277431488,0.217807001311601,0.166883019758709,0.0241201479573431,0.0190645370349219,0.0342237889862035,-0.0281343008276527,0.0947756019278272,0.0860934969785222,0.0874533346866591,-0.00253170390814508,0.00429035798483013,-0.043740262773168,-0.0154011996406909,-0.0162316125564818,-0.022185906976376,-0.0960184718262875,-0.0118268618559166,-0.0192450032687715,0.119008619840033,-0.00547544125111514,-0.00621911580823561,0.113664924427823,0.189216546164295,-0.0183043699678718,-0.00708259297568911,-0.03381110593678,-0.0390041552215998,-0.0103309807578304,-0.0404682188029306,-0.0192194520201506,-0.0121797504272241,-0.0443549940026317,0.129733916351292,-0.00358935455394117,-0.0145222251020515,-0.0183043699678718,-0.00148294371796496,-0.0057452696777702,-0.00708259297568911,-0.0394111234173209,0.00742515309596288,0.0340165096875677,0.0300571735258886,0.0432308499700763,0.0526270998697526,0.0273462609152255,0.0293489191960704,0.252522197772505,0.030650299212644,0.0695040147249148,-0.00708259297568911,0.0798342158093851,-0.0151071558935212,-0.0192350003810849,0.00329454870548288,-0.0432815373810082,-0.0287113657580822,-0.0437388522632433,0.00429925140076969,-0.0196741188767001,0.0920520807909255,0.0321560509644519,0.0127522468352871,-0.00208473277431488,-0.010211052561392,-0.0110775915636281,0.0141195665976457,-0.0144128087848595,-0.00401489794330534,-0.00282195020483934,0.000418913268510075,0.0902136874334176,0.316981397495913,0.0122940428995425,-0.00282195020483934,0.0792708862890704,0.00674050206742976,0.0336352329196231,-0.00224350159173427,0.0135900835485045,0.0286698010693023,-0.0127924609518766,0.0141854381974292,0.00334842985879665,-0.00969559393526356,-0.00936001467875294,-0.0072484876746669,0.00781350032135931,-0.0148678212173921,0.143871391670638,0.092654239074774,0.0110781656847799,0.0340165096875677,-0.0237566726309943,-0.00837084194598684,-0.00936001467875294,-0.0072484876746669,0.0340165096875677,0.0311971839550218,-0.00418390753198462,-0.0209803062342939,0.00805297999191457,-0.00900822936125735,0.00663566536353016,0.0198022907676255,0.0114010296921327,-0.00607272554461313,-0.00418390753198462,0.0225357364133062,-0.0132876801671444,0.00504726616656156,0.0122940428995425,-0.0163089036672526,0.0316854101421791,-0.0224806997807213,-0.00359480615521374,-0.0221106817770641,0.025995191697793,-0.00936001467875294,-0.00858624632364341,0.0476935994097337,0.0284350518862674,-0.00110309408078948,0.0961483976233127,0.0149865849613422,0.0170960718418641,0.00894318563491959,0.00217071691373789,-0.0110775915636281,-0.0135693684218732,-0.0156793317026932,-0.0145127319843988,-0.00591765196038063,-0.0158383257021583,-0.0209803062342939,0.0180639603978635,0.0577348774794709,-0.0205539267344572,0.0961483976233127,-0.0167659648095798,-0.0125638410854731,-0.0153581450280127,-0.011843872984696,0.0227917753307839,-0.00837084194598684,0.0420661597415562,-0.0265866047895982,-0.0126506475527194,-0.0201187261255373,-0.011843872984696,-0.0182769194609555,-0.0138932043766588,-0.00418390753198462,0.0149865849613422,-0.0072484876746669,0.0336084859141127,0.0114010296921327,-0.00591765196038063,-0.00936001467875294,-0.0110775915636281,0.0284350518862674,-0.00570297584939565,-0.00253170390814508,0.019217890346891,-0.013245050684236,0.0315555510961738,-0.0172840515582715,0.0170960718418641,0.177324652336114,0.0377803118039959,-0.0102546194175418,0.0277623042927815,-0.0125638410854731,-0.00591765196038063,-0.00418390753198462,0.0300384789286491,0.0182870037673856,-0.00418390753198462,0.0122940428995425,-0.00407028605339504,-0.0072484876746669,0.00334842985879665,-0.0031931323135276,-0.0162316125564818,-0.00407028605339504,-0.0102546194175418,0.0225357364133062,-0.00591765196038063,-0.00936001467875294,-0.013245050684236,-0.0162316125564818,-0.00591765196038063,-0.00418390753198462,0.00121954607446142,-0.0177872943191879,-0.0072484876746669,-0.0138932043766588,-0.00591765196038063,-0.00837084194598684,0.0225357364133062,-0.0072484876746669,-0.00837084194598684,0.0182870037673856,-0.00591765196038063,-0.0125638410854731,-0.0151071558935212,0.0590373118258837,-0.00418390753198462,-0.0145127319843988,0.00475991699607949,0.0284350518862674,-0.0102546194175418,0.0225357364133062,0.0534423147725992,0.0284350518862674,0.0534423147725992,-0.00591765196038063,-0.00418390753198462,0.0225357364133062,-0.00591765196038063,-0.00418390753198462,0.0843488931318923,-0.00837084194598684,-0.00418390753198462,-0.011843872984696,-0.00591765196038063,0.0225357364133062,-0.00418390753198462,0.0377803118039959,-0.00418390753198462,0.0534423147725992,-0.00418390753198462,-0.00418390753198462,-0.00418390753198462,-0.00591765196038063,-0.00418390753198462,-0.00418390753198462,-0.00591765196038063,-0.00418390753198462,-0.00418390753198462,-0.00418390753198462,-0.00418390753198462,-0.00418390753198462,-0.00418390753198462,-0.00418390753198462,-0.00418390753198462,-0.00591765196038063,-0.00418390753198462,0.0571039066442966
"X1011",0.178124868504689,-0.0620929621724919,-0.0313318869924234,-0.0148760352537988,-0.0303447044656125,-0.00736239937169857,0.0105263635105052,-0.019649726896044,-0.0746949199641242,-0.0646125850847429,0.0954130633269853,1,0.349297407420317,0.0191598763466255,0.307072909234616,0.0606081827675102,0.0365839360990773,0.044156922189288,-0.0525897817870184,-0.010882310310299,0.113460096288916,0.0540497188409431,-0.0135262109157591,-0.0160359375043398,0.00359974805085512,-0.0332383959020645,0.0120763247109277,-0.00471628958487667,0.0325676892237599,0.0308626816943988,-0.0237674445905365,0.118109932652264,-0.0269838679662565,-0.010787869673754,-0.0237732273203911,-0.0631415976801201,0.0800116663028009,-0.0365567228911246,0.0276000495141542,-0.00894140095660219,0.192444547123019,-0.00550651879337481,0.014347490199815,0.0136942657107847,-0.00920739440403509,-0.0133202694631966,-0.0240636793757903,-0.00956709686708577,-0.0391251755766829,-0.0127736503611624,0.0311262800101176,0.0299982721039168,0.0219103256617062,0.019448637415079,-0.0269690538791759,-0.0158847780260768,0.00590455014384903,-0.0139239455026275,-0.00920739440403509,0.0288731127217537,-0.00682627666787987,0.0679759792564937,0.0122784056015705,-0.01119897776154,0.00110114905917492,0.00806020004516452,-0.00573758851053762,0.0274629441814898,0.00450035273011265,-0.0153387577727759,-0.00920739440403509,0.0148763874528628,-0.0100405322239724,-0.00141517280872499,-0.0209114812077941,-0.0273220179964666,0.00938342142838725,-0.0247672363776493,-0.0172184107536207,-0.013075831476955,0.283905164854602,0.10866924807401,0.0547180871502,0.023184766220559,-0.00570099114506159,-0.00736239937169857,0.00286549485853185,0.140533825733044,0.173313842784715,-0.0195785702612997,0.00164271079120739,0.00110582627367488,0.138654822263609,0.0264736553265839,0.0318380198886094,0.0693302603482105,0.00604492279695736,0.00659614612641103,-0.00638962542226343,0.021825402085253,-0.00835019193319245,8.41477734088934e-05,-0.0111430113730915,-0.00964546564384912,-0.0053465455209408,-0.00622086179961758,-0.00481749672708226,0.0459313872898055,0.0131904891584128,0.00465059463754048,0.0420711783121894,0.00963368012797634,-0.00404875712608433,-0.0157891822105415,-0.00556343688334514,-0.00622086179961758,-0.00481749672708226,0.0268189870378777,0.0294212271252336,-0.00278071257707933,0.021942806537989,-0.00835019193319245,-0.0103392923125192,-0.0138763725898317,-0.0143380051807383,-0.0118218083567721,-0.00861618687293792,-0.00278071257707933,-0.00556343688334514,0.0291192377382133,0.0273243243616764,0.0264736553265839,-0.0174456190065349,0.0679916227142201,0.0284425084892139,-0.0116709985670337,-0.00800635528092419,0.00930674663056819,0.0338048381514103,-0.0139439509527122,0.0123489050787416,-0.00481749672708226,0.000586730024411631,0.0427368694739579,0.0297272713712912,0.0138479360784721,-0.0124642970503913,0.0242243304978131,0.0264736553265839,-0.00800635528092419,-0.0104208122508855,-0.00964546564384912,-0.00393299543721107,0.011935569102571,0.00399942779263839,-0.0162790701287657,0.0327237255880442,0.00465059463754048,0.0427368694739579,-0.0111430113730915,-0.00835019193319245,-0.00221740967530603,-0.00787168605379097,0.0276340229179218,-0.00556343688334514,-0.00923371461983132,-0.0176700143956587,-0.00737635102840286,-0.0133713267667651,-0.00787168605379097,0.00842029077699609,-0.00923371461983132,-0.00278071257707933,-0.00681543484638015,0.0468429978915001,-0.0152840988540064,0.00930674663056819,-0.00393299543721107,-0.00622086179961758,0.0264736553265839,-0.00481749672708226,0.00679469552249355,0.0933941739593835,0.0148063423911054,0.0195165914473191,0.0240341373937169,0.0102511306976337,-0.0165187401305949,0.0578295640286903,-0.00393299543721107,-0.00681543484638015,0.0972050241982571,-0.00835019193319245,-0.00393299543721107,-0.00278071257707933,0.00465059463754048,-0.00622086179961758,-0.00278071257707933,-0.00736239937169857,-0.0121472234811168,-0.00481749672708226,-0.00964546564384912,0.00930674663056819,-0.010787869673754,0.0495553192932218,0.0297272713712912,0.0391812589807679,-0.00393299543721107,-0.00622086179961758,-0.0088029381003642,-0.010787869673754,-0.00393299543721107,-0.00278071257707933,-0.0147622596766236,0.00930674663056819,0.0468429978915001,-0.00923371461983132,-0.00393299543721107,-0.00556343688334514,0.0391812589807679,-0.00481749672708226,-0.00556343688334514,0.0338048381514103,-0.00393299543721107,-0.00835019193319245,-0.0100405322239724,-0.00736239937169857,-0.00278071257707933,-0.00964546564384912,0.0177711590040587,-0.00481749672708226,0.102812683806634,0.0391812589807679,0.0391812589807679,-0.00481749672708226,0.173415346573107,-0.00393299543721107,-0.00278071257707933,-0.00556343688334514,-0.00393299543721107,-0.00278071257707933,-0.00556343688334514,-0.00556343688334514,-0.00278071257707933,-0.00787168605379097,-0.00393299543721107,0.173415346573107,-0.00278071257707933,-0.00393299543721107,-0.00278071257707933,0.083925954844881,-0.00278071257707933,-0.00278071257707933,-0.00278071257707933,-0.00393299543721107,-0.00278071257707933,-0.00278071257707933,-0.00393299543721107,-0.00278071257707933,-0.00278071257707933,-0.00278071257707933,-0.00278071257707933,-0.00278071257707933,-0.00278071257707933,-0.00278071257707933,-0.00278071257707933,-0.00393299543721107,0.0866763199413641,0.00572248797977394
"X1012",0.0932622221863135,-0.026014871582146,-0.0126014204249252,0.0200820315764404,-0.0378849904196956,0.0635075923334978,0.0108136220135718,-0.0140631894773759,-0.0488114833963823,-0.064058471220231,0.0968496558393003,0.349297407420317,1,-0.0072653550051124,0.140223776871414,-0.00933269467425465,-0.00324373414208487,-0.0258388442894296,-0.0419097520405855,-0.01094459697998,0.131961138627788,0.00957815533743138,-0.0149483365021169,-0.00789220494429561,0.0103583656814527,-0.0026524064223822,0.00638737136179722,0.0196329815488216,0.0677559349570045,-0.00789220494429561,-0.00947401256815287,0.00638786753742091,-0.0259093851226818,-0.00530932964502865,-0.0293878125086024,-0.0241347072291278,0.0268622670960225,-0.0260337884891885,0.0160207297014223,-0.000399494650884924,0.0553068003970989,0.00302947075902234,0.0536174060572324,-0.012670325554544,-0.0104027550764244,-0.0148819201053442,-0.0117557756016655,-0.0137091376635268,-0.0192557437972782,0.0325371364467865,-0.00973475199558257,-0.00712879288921513,0.00835034357862308,0.0286549437457158,-0.0132730188247868,-0.012670325554544,-0.0143407490526452,-0.0122796691574252,0.0132657940283789,0.0211608349260625,-0.0128993561326147,0.00829348077681055,0.034559915561859,-0.00166115668847453,0.0115446563856548,-0.00922957055669156,-0.00878999768973684,0.0673855282630337,0.0270724043620034,0.00549920281670493,0.0132657940283789,0.00747589062160261,-0.0049415220058041,-0.0138483144857563,-0.0145457955177606,-0.0221281174085015,-0.0135651800454407,-0.00909030312153458,-0.0084741678773606,-0.00643536692539945,0.144953295241501,0.0150658456165585,-0.00992996031406317,-0.01094459697998,-0.00933269467425465,-0.00362345916523268,-0.0128993561326147,0.224118327716634,0.0407164885835742,-0.00963573779061262,0.0256748000194377,-0.0075221820060129,0.104085371923563,-0.00362345916523268,-0.00963573779061262,0.0820298456603239,-0.00643536692539945,0.0162281486144044,0.0162281486144044,0.00614647859687597,-0.00410960856159012,-0.00777076250607091,-0.00548411525233591,-0.00474708707388129,-0.00922957055669156,-0.00306164302769544,-0.00237096655423589,-0.00628664625998866,-0.0082461441943215,0.029606373267875,-0.00474708707388129,-0.00891335585913695,0.00829348077681055,-0.00777076250607091,-0.00273808650514698,-0.00306164302769544,-0.00237096655423589,0.00829348077681055,-0.000753138884700242,-0.00136854820889339,0.028737214255829,-0.00410960856159012,-0.0107668380403314,0.00872018001038271,-0.0121204843618394,-0.0058181901955269,-0.0102161252727369,-0.00136854820889339,-0.00273808650514698,0.0304186348037169,-0.00836090570205605,-0.00362345916523268,-0.00858599009521026,0.043232359224434,-0.010121589598861,-0.011206265796204,-0.0100262094027107,0.0361010620812728,-0.00306164302769544,-0.00686261832975022,-0.00530932964502865,-0.00237096655423589,-0.00764745216174674,0.0676319964088393,-0.00335426653898903,-0.00812981981857523,-0.00613439574590795,-0.00880553354237583,0.0635075923334978,-0.0100262094027107,-0.00512867962648007,-0.00474708707388129,-0.00193565271921576,-0.0084741678773606,-0.00686261832975022,-0.00801186445906326,0.0108136220135718,-0.00672315040500533,0.0305255996483048,-0.00548411525233591,-0.00410960856159012,-0.00836090570205605,-0.00387410836297281,0.0336433266689639,-0.00273808650514698,-0.00454444076981004,0.0194990220248449,-0.00983281678243572,-0.00658079711222973,-0.00387410836297281,-0.0059783456496503,-0.00454444076981004,-0.00136854820889339,-0.00335426653898903,-0.00237096655423589,-0.0075221820060129,-0.0058181901955269,-0.00193565271921576,-0.00306164302769544,-0.00362345916523268,-0.00237096655423589,-0.00628664625998866,0.0231235625924722,-0.0049415220058041,-0.00433243092779708,-0.00658079711222973,-0.00565358044403845,-0.00812981981857523,0.0999368794269875,-0.00193565271921576,-0.00335426653898903,0.0374757556639755,-0.00410960856159012,-0.00193565271921576,-0.00136854820889339,-0.00672315040500533,-0.00306164302769544,-0.00136854820889339,-0.00362345916523268,-0.0059783456496503,-0.00237096655423589,-0.00474708707388129,-0.0058181901955269,-0.00530932964502865,0.0348277965313509,-0.00335426653898903,-0.00273808650514698,-0.00193565271921576,-0.00306164302769544,-0.00433243092779708,-0.00530932964502865,-0.00193565271921576,-0.00136854820889339,-0.0072653550051124,-0.0058181901955269,-0.00237096655423589,-0.00454444076981004,-0.00193565271921576,-0.00273808650514698,0.0860358119039154,-0.00237096655423589,-0.00273808650514698,-0.00306164302769544,-0.00193565271921576,-0.00410960856159012,-0.0049415220058041,-0.00362345916523268,-0.00136854820889339,-0.00474708707388129,0.0490334830788026,-0.00237096655423589,-0.00335426653898903,-0.00273808650514698,-0.00273808650514698,-0.00237096655423589,0.174809710312978,-0.00193565271921576,-0.00136854820889339,-0.00273808650514698,-0.00193565271921576,-0.00136854820889339,-0.00273808650514698,-0.00273808650514698,-0.00136854820889339,-0.00387410836297281,-0.00193565271921576,0.0860358119039154,-0.00136854820889339,-0.00193565271921576,-0.00136854820889339,0.174809710312978,-0.00136854820889339,-0.00136854820889339,-0.00136854820889339,-0.00193565271921576,-0.00136854820889339,-0.00136854820889339,-0.00193565271921576,-0.00136854820889339,-0.00136854820889339,-0.00136854820889339,-0.00136854820889339,-0.00136854820889339,-0.00136854820889339,-0.00136854820889339,-0.00136854820889339,-0.00193565271921576,-0.00136854820889339,0.00623082934197901
"X1013",0.0032881329644251,0.04795777558737,-0.0220841020629838,0.0612622725443954,0.0117956107600483,0.0683434925807772,0.0601090627127101,-0.0131485248683734,-0.038168517256814,-0.0288871780797763,0.212099388116748,0.0191598763466255,-0.0072653550051124,1,0.0167972368440075,-0.00872569968646049,-0.00111592371614017,0.0186701354296747,0.0381380912639529,0.0138409161090498,0.0807728166769645,-0.00218288486092967,-0.0139761022600951,-0.00737889887235833,-0.00974299842844723,-0.00853518073861531,-0.013574785661281,-0.0107415903424743,-0.00891554328031381,-0.00737889887235833,-0.00557431718689608,0.010170958486512,-0.0242242483583043,-0.00496401282115681,-0.0454033701876201,-0.0271295568776975,-0.00131955643852399,0.00293615800603295,-0.0137527971621891,-0.0149968458192785,0.00644511665304587,-0.0068628846706446,-0.00131493734896891,-0.0118462522966301,-0.00972616375837144,0.00401864135769367,0.00255288478057407,-0.0128175004527118,0.0102332008736501,-0.00587776512725699,0.0178781572931955,-0.0251299761300241,0.0237080399095008,-0.0155698120293593,-0.0124097466209111,-0.0118462522966301,0.0051645090157865,0.0137505963356529,-0.00972616375837144,-0.0177524205849911,-0.012060386811153,0.0322935381599093,-0.0101499855305511,-0.0156261070610479,-0.000812937494719118,-0.00862928272311881,0.00646706489189061,0.00347648543732242,0.00944885799467567,-0.00175483605957258,-0.00972616375837144,0.00964939879117651,-0.00462012725388192,-0.0115224317790164,-0.0135997423915273,0.00424110699752766,0.00689821735750414,-0.00688098190930339,-0.00792301115287525,-0.00601681305594634,0.0368820413941335,0.0182489631985899,0.0701027531515971,-0.0102327644662044,-0.00872569968646049,-0.00338779072985137,-0.012060386811153,0.000457311664981066,0.00656756765179036,-0.00900903299132938,-0.00691389394813536,-0.00703294208825144,0.0521243351128844,-0.00338779072985137,-0.00900903299132938,0.00811783124264844,-0.00601681305594634,0.0186138500331552,0.0186138500331552,0.00830067223276153,0.0594339993823592,0.0263855638243703,-0.00512743043762357,-0.00443833829755871,0.0197925611665185,-0.00286251490478013,-0.00221675977207051,-0.00587776512725699,-0.00770981804530594,0.0713522121680679,-0.00443833829755871,-0.00833363451179159,-0.0113321725704369,-0.0072653550051124,-0.00256000237802388,-0.00286251490478013,-0.00221675977207051,-0.0113321725704369,0.0344288973888014,-0.00127953834278853,-0.00641627618798982,-0.00384232115042446,-0.010066566901825,0.0109150671896095,0.0322935381599093,-0.00543977727085893,0.0161882238121833,-0.00127953834278853,0.0922972285933969,0.0081583579068362,-0.00781711550729401,-0.00338779072985137,0.0224801098851857,-0.012340597637047,0.0165106787709717,0.0130514112775569,-0.0093741084751181,0.0393520395427612,-0.00286251490478013,-0.00641627618798982,-0.00496401282115681,-0.00221675977207051,0.027035152546088,0.0334963703704282,0.0743331860358675,0.0245871001865325,-0.00573541692994135,-0.00823282491837895,-0.00338779072985137,0.0168405479748416,-0.004795112212573,-0.00443833829755871,-0.0018097585868474,-0.00792301115287525,-0.00641627618798982,0.0251633413175284,0.0130514112775569,-0.00628587920515753,-0.00615278451755726,0.0423699720537555,-0.00384232115042446,-0.00781711550729401,-0.00362213779706723,-0.00573541692994135,-0.00256000237802388,-0.00424887203367517,-0.00813081550507389,-0.00919329403888112,-0.00615278451755726,-0.00362213779706723,-0.00558951627385927,-0.00424887203367517,-0.00127953834278853,-0.00313610629181962,-0.00221675977207051,-0.00703294208825144,-0.00543977727085893,-0.0018097585868474,-0.00286251490478013,0.0683434925807772,0.107301728967127,-0.00587776512725699,-0.00737889887235833,-0.00462012725388192,-0.00405065123287234,0.0731455252584137,-0.00528587367633618,-0.0076010593636599,0.107701778869829,-0.0018097585868474,-0.00313610629181962,-0.00528587367633618,-0.00384232115042446,-0.0018097585868474,-0.00127953834278853,-0.00628587920515753,-0.00286251490478013,-0.00127953834278853,-0.00338779072985137,0.0380129133060579,-0.00221675977207051,-0.00443833829755871,-0.00543977727085893,0.0440851614831307,-0.00558951627385927,-0.00313610629181962,-0.00256000237802388,-0.0018097585868474,-0.00286251490478013,-0.00405065123287234,-0.00496401282115681,-0.0018097585868474,-0.00127953834278853,-0.00679281901989326,-0.00543977727085893,-0.00221675977207051,-0.00424887203367517,-0.0018097585868474,0.0922972285933969,-0.00256000237802388,-0.00221675977207051,-0.00256000237802388,-0.00286251490478013,-0.0018097585868474,-0.00384232115042446,-0.00462012725388192,0.0683434925807772,-0.00127953834278853,-0.00443833829755871,-0.00424887203367517,-0.00221675977207051,-0.00313610629181962,-0.00256000237802388,-0.00256000237802388,-0.00221675977207051,0.0922972285933969,-0.0018097585868474,-0.00127953834278853,-0.00256000237802388,-0.0018097585868474,-0.00127953834278853,0.0922972285933969,-0.00256000237802388,-0.00127953834278853,-0.00362213779706723,0.132306279545594,-0.00256000237802388,-0.00127953834278853,-0.0018097585868474,-0.00127953834278853,-0.00256000237802388,-0.00127953834278853,-0.00127953834278853,-0.00127953834278853,-0.0018097585868474,-0.00127953834278853,-0.00127953834278853,-0.0018097585868474,-0.00127953834278853,-0.00127953834278853,-0.00127953834278853,-0.00127953834278853,-0.00127953834278853,-0.00127953834278853,-0.00127953834278853,-0.00127953834278853,-0.0018097585868474,-0.00127953834278853,-0.00455639293411857
"X1014",0.465755977433676,-0.0798349769516095,-0.0373355421660509,-0.0101240806586404,-0.0626353454980212,0.00837730596098536,-0.0251849323220284,-0.0267451609352273,-0.0512900603908762,-0.044203964721645,-0.0174832746816346,0.307072909234616,0.140223776871414,0.0167972368440075,1,0.025099059530271,0.0733383442714175,0.0392938511092883,-0.0545758472203774,-0.00284541555050336,-0.0298641906758463,-0.0242374192287124,-0.0206237343424362,-0.0274247623043773,-0.0142437618102612,-0.0102789446003325,-0.0356887963486016,-0.0491576126115317,-0.0250885197277507,0.030702287523593,-0.0415599482985438,0.253343342343019,-0.0296048179284675,-0.00411140171455604,-0.00429924082878336,-0.0675874738387015,0.162890851327146,-0.0116866429337271,-0.0263793031618559,-0.011769627929339,0.407503369079017,-0.0569253993754501,-0.016981577750146,0.0109629148127023,-0.0213628729387976,-0.035987203296113,-0.0342516693090918,0.0203617207275036,-0.0462768084945245,0.0145344977787344,0.0371531951673507,0.110169316434328,-0.0161968764729267,0.0742178928129384,-0.0169016858457568,-0.0195877811802568,0.0207458384531869,-0.0431047047688504,-0.0213628729387976,0.0176230000042057,0.0212427228816627,-0.0038596098419215,-0.00935235832852902,-0.011061585739708,-0.0153004205415903,-0.00714713056985047,-0.0119422383693267,-0.026852307080715,0.0183364993327856,-0.0304831294890989,-0.0139699507660149,0.0127606744532772,-0.017171382064651,-0.0218751118358331,-0.0344757085498741,-0.0440993788122725,0.118857092262877,-0.0320610561470367,-0.011380034150565,-0.0223623701508278,0.0962421115490336,0.0267970668047035,-0.00356390875785424,0.00419181599573558,0.016880573097367,0.00837730596098536,0.0032244710846399,0.369761032695649,0.377360908241305,-0.00958587918514005,-0.0153671261579775,-0.0159819689889406,-0.00379864284292391,-0.0125912222284533,0.0143116370052872,0.0437475210151421,0.0487335206504505,-0.0170411123332411,-0.000946297544221855,-0.0092510474861302,-0.0142805513492278,-0.00732904963126565,0.0225965515423358,-0.000471086113246683,-0.0154554196076318,-0.0106389574127938,-0.00823891354070142,0.0630412655967866,0.017739245323935,-0.0120147892596516,-0.000471086113246683,-0.0223764222143983,-0.0229886474740563,-0.027002759831623,-0.00951462513993055,0.0141653534091692,-0.00823891354070142,0.00889308191283505,-0.00805421436116112,-0.00475559233394087,-0.00160766518646867,-0.0142805513492278,0.00548562257886341,-0.0221792452823934,-0.0102359557192998,-0.00712416330904956,-0.0129272923300281,-0.00475559233394087,-0.00951462513993055,0.0167701831647569,-0.00159251421838116,0.00837730596098536,-0.0209175895898582,0.00701377965838511,0.0559409907270428,-0.0251849323220284,-0.00418792090868535,0.00596940521732585,-0.0106389574127938,-0.012727349392877,0.0102266798950302,-0.00823891354070142,-0.0265742665389842,-0.0112774653109161,-0.0116558000186994,-0.00943193342001665,-0.0213165200853162,0.0129010135286894,0.00837730596098536,-0.0348402520745481,-0.00298220919888134,-0.0164957366868019,-0.00672623380956205,0.0247539686993544,-0.012727349392877,-0.0278405692649317,-0.0114290137728816,-0.000667184474136323,0.0234933229805414,-0.00517238209719443,-0.0142805513492278,-0.00159251421838116,-0.0134622075511006,0.0035327940590833,-0.00951462513993055,0.0176788018219791,-0.021412461611789,-0.0107382635295104,-0.0228677280747352,0.00615442213185847,0.00471751354148095,-0.0157915574668956,-0.00475559233394087,-0.0116558000186994,-0.00823891354070142,-0.0261389630630759,0.0583436793228275,-0.00672623380956205,0.0637739750530952,0.00837730596098536,-0.00823891354070142,0.0387878816877605,0.030702287523593,0.0136243117850904,0.0200449283792746,-0.0112774653109161,-0.0196457265036556,-0.0188411939231583,0.00951201901993962,-0.00672623380956205,-0.0116558000186994,0.0477119775529958,-0.0142805513492278,0.0324786402208909,-0.00475559233394087,-0.000667184474136323,0.0141653534091692,-0.00475559233394087,0.00837730596098536,-0.0080283726545776,-0.00823891354070142,0.0155535644603085,0.00596940521732585,-0.00411140171455604,0.0174633997375395,0.0109900661225003,-0.00951462513993055,-0.00672623380956205,0.0141653534091692,0.0200449283792746,-0.0184494833241422,-0.00672623380956205,-0.00475559233394087,-0.0147355735763624,-0.00712416330904956,-0.00823891354070142,0.00094362217754177,-0.00672623380956205,-0.00951462513993055,0.0182140927889401,-0.00823891354070142,-0.00951462513993055,0.0141653534091692,-0.00672623380956205,0.004216417470777,0.0136243117850904,-0.0125912222284533,-0.00475559233394087,-0.000471086113246683,0.00094362217754177,-0.00823891354070142,0.0789276645460994,0.0182140927889401,-0.00951462513993055,-0.00823891354070142,0.0459428107178107,-0.00672623380956205,-0.00475559233394087,-0.00951462513993055,-0.00672623380956205,-0.00475559233394087,-0.00951462513993055,-0.00951462513993055,-0.00475559233394087,-0.0134622075511006,-0.00672623380956205,0.0459428107178107,-0.00475559233394087,-0.00672623380956205,-0.00475559233394087,-0.00951462513993055,-0.00475559233394087,-0.00475559233394087,-0.00475559233394087,-0.00672623380956205,-0.00475559233394087,-0.00475559233394087,-0.00672623380956205,-0.00475559233394087,-0.00475559233394087,-0.00475559233394087,-0.00475559233394087,-0.00475559233394087,-0.00475559233394087,-0.00475559233394087,-0.00475559233394087,0.0324786402208909,0.0506817902105945,-0.0036389111571867
"X1015",0.0204508570128527,-0.0147600174671805,-0.00995589216680868,-0.0244579173815932,-0.0155035765453556,-0.00435177860954147,0.00493841706243099,-0.0168899066772409,-0.0183304999113145,-0.0269706238838907,-0.0193714218069122,0.0606081827675102,-0.00933269467425465,-0.00872569968646049,0.025099059530271,1,0.398525036109475,0.0919474340725519,-0.0224078225612637,0.0621482319161027,-0.0166342898294677,0.0129548504057751,-0.00399029639282818,-0.00947854718172257,-0.0278727332452542,-0.0131282437383553,-0.0345246645487113,-0.0105478830367874,-0.011452440139776,-0.00947854718172257,-0.0203640987497956,0.0487073926386786,-0.0055961765043028,-0.00637651098760386,-0.0142692350893881,-0.0421912017159396,0.0132241343028693,0.0135214072853547,-0.0334657916544385,-0.0192641630050716,0.0905546353104592,-0.0365396123776694,-0.0212694450969472,0.0174697067706209,-0.0124937207672314,-0.0178732030996086,-0.0276504793839645,-0.0013075330602109,-0.0231261703655559,0.024886188042272,0.0304994303522093,0.0749703126548412,-0.0289650485215393,0.00523567723046809,-0.0159409108180303,0.00112631563038719,0.0118204304999313,-0.00024160835006499,-0.0124937207672314,0.0890060645924246,0.000572922773985507,0.0707204862143597,-0.0130381400273049,-0.00749687698905551,-0.0209234602709145,-0.0110847248146882,-0.0150222005054991,-0.00439972480959699,-0.0150311321786587,-0.0306020726587607,-0.0124937207672314,-0.0149373619399731,-0.00593477359142692,-0.0116172362084465,-0.0174695170847579,-0.0265758943640683,0.0296395596288606,-0.015345605856702,-0.010177485331201,0.0239656472490812,0.00809352055569402,0.0587820915176487,0.00876493359217714,0.00567870284330467,-0.0112085769980507,-0.00435177860954147,-0.015492141496554,0.00507872507423486,0.0593210948713558,-0.0115725321280516,-0.00888122620060821,-0.00903414920883829,0.0366689960332795,-0.00435177860954147,-0.0115725321280516,-0.0156730582747105,-0.00772888305164759,-0.011452440139776,-0.011452440139776,-0.0155828401738868,-0.00493564459164202,0.0432905157851975,-0.0065864287022655,-0.00570125701538597,0.0111382742099282,-0.00367703678457798,-0.00284753354851163,-0.00755026936207123,-0.00990362862658023,-0.00807451134042336,-0.00570125701538597,0.012289637904803,0.00249872475699272,0.0169789105554714,-0.00328844503023608,-0.00367703678457798,-0.00284753354851163,0.00249872475699272,-0.0194874946917494,-0.00164362796709097,-0.00824201247785731,-0.00493564459164202,-0.0129309848240839,0.00291421111231002,-0.014556715607349,-0.00698765309185207,-0.012269578159145,-0.00164362796709097,-0.00328844503023608,-0.00311307836146228,0.0144427071334214,-0.00435177860954147,-0.0103117839429747,-0.0158520856535359,0.00815296449960385,0.00493841706243099,-0.0120414889816202,-0.00698765309185207,-0.00367703678457798,-0.00824201247785731,-0.00637651098760386,-0.00284753354851163,-0.00918459880942085,-0.00790354487267821,-0.00402847795695685,-0.00976392291801365,-0.00736741632019748,-0.0105754558745939,-0.00435177860954147,-0.0120414889816202,-0.00615955010832139,-0.00570125701538597,-0.00232472113382931,-0.010177485331201,-0.00824201247785731,-0.00962225839607554,-0.0134587380624241,0.022278044875842,-0.00790354487267821,-0.0065864287022655,0.0445400197931753,-0.0100414573288738,-0.00465280858324456,-0.00736741632019748,-0.00328844503023608,-0.00545787857198538,-0.0104444199227917,-0.0118092242230626,0.0230980725390558,-0.00465280858324456,-0.0071799999757753,-0.00545787857198538,-0.00164362796709097,-0.00402847795695685,-0.00284753354851163,0.018133763267016,-0.00698765309185207,-0.00232472113382931,-0.00367703678457798,-0.00435177860954147,-0.00284753354851163,-0.00755026936207123,0.275564719515007,-0.00593477359142692,-0.00520325450878719,0.0230980725390558,-0.00678995659168925,-0.00976392291801365,-0.00824201247785731,-0.00232472113382931,-0.00402847795695685,0.0652773576167772,-0.00493564459164202,-0.00232472113382931,-0.00164362796709097,-0.00807451134042336,-0.00367703678457798,-0.00164362796709097,-0.00435177860954147,-0.0071799999757753,-0.00284753354851163,-0.00570125701538597,-0.00698765309185207,-0.00637651098760386,-0.0071799999757753,-0.00402847795695685,-0.00328844503023608,-0.00232472113382931,-0.00367703678457798,-0.00520325450878719,-0.00637651098760386,-0.00232472113382931,-0.00164362796709097,-0.00872569968646049,0.028035004312962,-0.00284753354851163,-0.00545787857198538,-0.00232472113382931,-0.00328844503023608,-0.00328844503023608,-0.00284753354851163,-0.00328844503023608,-0.00367703678457798,-0.00232472113382931,-0.00493564459164202,-0.00593477359142692,-0.00435177860954147,-0.00164362796709097,0.0371614542415919,-0.00545787857198538,-0.00284753354851163,0.0565446507436625,-0.00328844503023608,-0.00328844503023608,-0.00284753354851163,-0.00328844503023608,-0.00232472113382931,-0.00164362796709097,-0.00328844503023608,0.102540416968254,-0.00164362796709097,-0.00328844503023608,-0.00328844503023608,-0.00164362796709097,-0.00465280858324456,-0.00232472113382931,-0.00328844503023608,-0.00164362796709097,-0.00232472113382931,-0.00164362796709097,-0.00328844503023608,-0.00164362796709097,-0.00164362796709097,-0.00164362796709097,-0.00232472113382931,-0.00164362796709097,-0.00164362796709097,-0.00232472113382931,-0.00164362796709097,-0.00164362796709097,-0.00164362796709097,-0.00164362796709097,-0.00164362796709097,-0.00164362796709097,-0.00164362796709097,-0.00164362796709097,-0.00232472113382931,-0.00164362796709097,-0.012810888342983
"X1016",0.024901751528142,-0.0531245224927575,-0.00829063615424874,-0.0299980061918281,-0.0675325119223417,-0.00820444582441952,-0.0153394191169176,-0.0157045480361812,0.0508003435130999,0.0175798854263978,-0.00882374138386672,0.0365839360990773,-0.00324373414208487,-0.00111592371614017,0.0733383442714175,0.398525036109475,1,0.0178618564749395,0.00631018750534302,0.0573531948985869,-0.0328126807677624,-0.0222511315443713,-0.0109996881061937,-0.01786998692354,-0.0321538461951955,-0.0345415621260529,-0.0398131871457242,-0.0194543830367434,-0.00985078621623437,-0.00373611123596787,-0.0136330725333462,0.177257250437569,-0.00762528880738534,-0.0120216912762766,-0.0123867560804149,-0.0169791043509305,0.0330837555715814,0.000729252847516081,-0.0195716427943155,-0.0220640667004068,0.130054906233758,-0.0289066170311734,-0.0140964537116288,0.0337109422843024,-0.0235545197440492,-0.0260486785884535,-0.0315920630593082,0.00202796565552191,-0.0255366893621396,0.0211493834939231,0.139044745260392,0.204633981514805,-0.0398125066861452,-0.0101774506992278,0.00405151591786506,0.0158824204951021,0.133864062284768,-0.00739075700342026,-0.0127687692268028,0.115568879351264,0.00584233822564979,0.0190692862987759,-0.0142328951514485,-0.00354693780335383,-0.0130472774036139,0.00334428455401964,-0.0141617920621368,-0.0267726026454535,-0.0283383234085266,-0.0294594981694812,0.00880273180769001,-0.0190870456885719,-0.0111888799453859,-0.0263417271004229,-0.00167595963845088,-0.0341557177891695,0.0360918115023509,-0.0369720829471685,-0.0191877010575823,0.00271598261037136,0.0451603844007182,0.112674990192394,-0.011198484865068,-0.0145145664698274,-0.00914143671159363,-0.00820444582441952,-0.0204450166385858,0.0307489426344803,0.0185624597034904,-0.0218177948408911,-0.00167402212308465,-0.00221382367763533,0.0060063605332337,-0.00820444582441952,0.00142539565832545,-0.00355183996435365,0.0200032952377351,-0.0215913843774557,-0.0215913843774557,-0.00323767798365752,-0.00930521340675069,0.0254588174349987,-0.0124174509580194,-0.0107486291263228,-0.0087769214714664,-0.00693234923011087,-0.00536847960986745,-0.0142345880842994,0.00840278088027386,0.00133240670065298,-0.0107486291263228,-0.00764007779675939,0.000464011080738993,-0.00324373414208487,0.074708742338922,-0.00693234923011087,-0.00536847960986745,-0.0181412641372979,-0.00148495696710903,-0.00309874601201726,-0.0155387373591358,-0.00930521340675069,-0.00351645298814917,0.00119213500127534,-0.00883862652827946,0.00592870754872761,-0.0231319417477886,-0.00309874601201726,-0.0061997338371026,-0.0169006232068585,0.00777780422927244,0.0223871536107476,-0.0194408953910846,-0.0298860740901057,0.0213910970529469,-0.0153394191169176,-0.0115220274997616,-0.0131738827674367,-0.00693234923011087,-0.0155387373591358,-0.0120216912762766,-0.00536847960986745,-0.00273666279965421,-0.0149006214577606,-0.00759492430985667,-0.0184080082656346,-0.01388985366408,-0.0199379983626481,-0.00820444582441952,-0.0115220274997616,-0.011612653055401,0.0126302025687713,-0.00438281684586785,0.0203500146271081,0.000684095355433651,-0.004214762154838,-0.0253738751911937,0.00133240670065298,0.0189181256298557,-0.0124174509580194,0.0176805557323236,-0.0189312462891228,-0.00877198023560448,-0.01388985366408,-0.0061997338371026,-0.0102897856434917,-0.0196909551501888,0.0119186293073716,0.0358274991736638,-0.00877198023560448,-0.013536516010126,0.0141256577072748,-0.00309874601201726,-0.00759492430985667,-0.00536847960986745,-0.00221382367763533,0.00592870754872761,-0.00438281684586785,-0.00693234923011087,-0.00820444582441952,-0.00536847960986745,0.00345739770481186,0.194138148390042,-0.0111888799453859,-0.00980974069646185,0.00200875208604757,-0.0128011638470148,-0.0184080082656346,0.000684095355433651,-0.00438281684586785,-0.00759492430985667,0.026506886441636,-0.00930521340675069,-0.00438281684586785,-0.00309874601201726,-0.0152229460170412,0.0292553857446817,-0.00309874601201726,-0.00820444582441952,-0.013536516010126,-0.00536847960986745,-0.0107486291263228,-0.0131738827674367,-0.0120216912762766,0.00505883037915666,-0.00759492430985667,-0.0061997338371026,-0.00438281684586785,-0.00693234923011087,-0.00980974069646185,-0.0120216912762766,-0.00438281684586785,-0.00309874601201726,-0.00111592371614017,-0.0131738827674367,-0.00536847960986745,-0.0102897856434917,-0.00438281684586785,-0.0061997338371026,-0.0061997338371026,-0.00536847960986745,-0.0061997338371026,-0.00693234923011087,-0.00438281684586785,-0.00930521340675069,0.0337398590709193,-0.00820444582441952,-0.00309874601201726,-0.0107486291263228,-0.0102897856434917,-0.00536847960986745,0.0254437925516792,-0.0061997338371026,-0.0061997338371026,-0.00536847960986745,0.074708742338922,-0.00438281684586785,-0.00309874601201726,-0.0061997338371026,0.0528143212369988,-0.00309874601201726,-0.0061997338371026,-0.0061997338371026,-0.00309874601201726,-0.00877198023560448,-0.00438281684586785,0.0342545042509097,-0.00309874601201726,-0.00438281684586785,-0.00309874601201726,-0.0061997338371026,-0.00309874601201726,-0.00309874601201726,-0.00309874601201726,-0.00438281684586785,-0.00309874601201726,-0.00309874601201726,-0.00438281684586785,-0.00309874601201726,-0.00309874601201726,-0.00309874601201726,-0.00309874601201726,-0.00309874601201726,-0.00309874601201726,-0.00309874601201726,-0.00309874601201726,0.0528143212369988,-0.00309874601201726,-0.0150405004123036
"X1017",-0.00261299111529247,0.0136615119566519,-0.0125309178859362,-0.0643853763840045,0.068230662847537,-0.0142581376903749,-0.02035053927911,-0.0784292148030637,-0.0675599532195889,0.0652892070199869,0.0137547835956491,0.044156922189288,-0.0258388442894296,0.0186701354296747,0.0392938511092883,0.0919474340725519,0.0178618564749395,1,-0.0660736644473397,0.0558103775255257,-0.0357891923938308,0.0293897715099148,-0.0181669262388225,-0.027944148448906,0.0268087987934608,-0.0872304825499921,-0.110046394369241,-0.0701541640734809,0.00447486118909993,0.0373931252613864,0.106220043715156,0.111925331977368,0.0351722210415074,0.017097202025684,-0.0189031194142698,-0.0700664272952512,0.0128258841435976,0.152013016666318,-0.106981341744131,-0.0054576243143682,0.0722068249718004,-0.0955622565827736,-0.00958443793419494,0.00508732634936934,-0.0088816437388325,0.00962294274588245,-0.0544261619935139,0.0543377153269372,-0.0664924379136926,0.00252418306301015,-0.00411209243596204,-0.0136418823926674,-0.0142912893350438,0.0541562626745422,0.0158086280061654,-0.00178072971760619,0.00285203656880083,0.0640127322542217,-0.0213465816881578,0.0249639150665713,0.00373262267392742,0.127904926755254,-0.0375927603984971,-0.0265075522419584,-0.0216988528066833,-0.00763424483667998,0.0616406853671995,-0.0132363669931641,0.0222336938992801,-0.0720363476265686,0.00358329421049279,-0.0354570495784311,-0.0169721038904596,0.101808064868251,-0.0163800786265855,-0.0139344729066695,-6.82156863450608e-05,-0.000195245917908937,-0.0427741935163245,-0.040544726645518,0.0288108419948849,0.034343999551694,0.00502214734668837,-0.00747080052291792,-0.0189077011817231,0.00931137890594287,0.0408636370702636,0.0554053175679943,0.0638920547306652,0.0068535407652004,0.00407492151155074,0.0128061774464547,0.013155388422824,0.00931137890594287,0.056100217285175,0.0239974170797741,-0.0139064593172666,-0.00457076664079034,-0.0136163944706806,-0.00118415581161734,-0.0117158167346169,0.00733228495406375,0.0285847613279863,-0.031545551015456,-0.012303679777317,0.00985915979506923,-0.024752066754197,0.0434169340512682,0.0234254627748983,0.0382317608116407,-0.00452696886476618,0.0132419648549786,0.00606110411827737,0.012860806494646,0.01816771419327,-0.0180219394550414,0.0292264287948926,0.0705666572790296,-0.00370325718829933,0.0168698190652001,-0.015397861379791,-0.00132012730792027,-0.0400707589244792,0.0312504926992408,-0.00827346325077867,0.0202076169646926,0.00329643910051177,-0.0142871676373279,0.00258358564798879,0.00461892571197206,0.0156059455176103,-0.00247337939221599,0.0106075701004301,0.0405225662918044,-0.0117858964167845,0.00284281608750659,-0.0271474655532047,-0.0386632924094557,-0.00408138982998607,-0.027896858881235,0.017097202025684,-0.00675923490450045,0.00440778177945558,-0.0165894434016901,0.00316499674987292,0.00502697974379781,0.00578825277375979,-0.00391515907108846,-0.0260428959885337,-0.00561338893601759,-0.00350084544049201,-0.00452696886476618,0.0018264304562532,0.0486121540317089,-0.015397861379791,-0.0138992441535998,-0.0164849800513406,-0.0191665938115115,0.0159804260831305,-0.00262869993004374,-0.0117158167346169,0.00531685601120267,0.0257054309131365,0.0407028588945493,0.00258358564798879,-0.0192258026871115,-0.0115929624179374,0.0334195711512688,0.0746061911558076,0.0146804682953692,0.0163861962746821,-0.0192258026871115,-0.0142871676373279,-0.0222899189710042,-0.00675923490450045,-0.0100276083334753,-0.0165867013941501,0.0018264304562532,0.00985915979506923,-0.00247337939221599,-0.024752066754197,-0.0383685679252479,-0.00616505721214185,0.026297481528761,0.00408796666756824,0.00946645218616641,-0.0211649542044912,-0.0319904503087564,0.00960013362309708,0.0018264304562532,0.0158924546103115,0.00154892217219318,-0.0221115061613135,0.0018264304562532,0.0168698190652001,0.00634378602100059,0.00985915979506923,-0.0142871676373279,-0.00247337939221599,0.0665304079864187,-0.024752066754197,-0.0225393569652261,0.0496430716517667,0.0251555084886696,0.0235496550906445,-0.00956246111056565,-0.0130005428972924,0.0018264304562532,-0.00408138982998607,-0.0156388492282553,0.000980589099712711,0.0018264304562532,0.0168698190652001,0.0127627656497761,-0.0386632924094557,0.0112335969451961,0.0278018297256627,-0.0202075416177316,-0.0285846714425737,0.00258358564798879,-0.024752066754197,0.0337518427385513,-0.0180219394550414,0.0018264304562532,-0.00132012730792027,-0.0169721038904596,0.00931137890594287,-0.0142871676373279,-0.0225393569652261,-0.0192258026871115,0.0112335969451961,0.00316499674987292,-0.0130005428972924,0.01816771419327,-0.024752066754197,0.00258358564798879,0.0018264304562532,-0.0142871676373279,-0.0130005428972924,0.023860402530238,0.0168698190652001,0.01816771419327,-0.0130005428972924,0.0168698190652001,0.00365550567760188,0.023860402530238,0.00258358564798879,-0.0142871676373279,0.0018264304562532,0.0168698190652001,-0.0285846714425737,-0.0142871676373279,-0.0142871676373279,-0.0142871676373279,-0.0202075416177316,-0.0142871676373279,-0.0142871676373279,-0.0202075416177316,-0.0142871676373279,-0.0142871676373279,-0.0142871676373279,-0.0142871676373279,-0.0142871676373279,-0.0142871676373279,-0.0142871676373279,0.0168698190652001,0.0018264304562532,-0.0142871676373279,-0.0121333236219439
